8575 40
the -0.14564435 -1.8676817 0.39268818 2.1231217 -1.2915915 -0.20446916 -2.496914 1.0139892 -0.039773338 -0.43072844 1.8742498 0.3118283 -0.6560012 0.045089945 0.98043305 1.044036 -0.5675926 0.85925895 -1.8293895 0.4832807 -0.81383574 0.4808398 -1.0346138 -0.24433443 -0.40933666 -1.4780724 -0.18021667 0.86038625 1.1053644 -0.9826266 -0.8828991 -0.6237997 -2.7406094 0.47076997 0.36222324 -0.61041486 -0.14499016 -0.19602945 -0.31028154 -0.13992162
what 2.5791485 -0.58512354 -0.21756361 -1.7355239 -0.83074635 0.49003342 -1.5571071 0.118121654 2.9656312 -0.05271809 1.602831 -1.1600931 0.30707493 0.7969334 -1.0772855 0.00044111913 -0.42228678 1.9370397 -3.3407593 0.6583948 -1.5100834 -2.9385169 -2.7907925 -0.36633763 0.18732242 -1.7212768 -0.72344154 -0.9001685 1.319221 -3.241463 -2.8763068 -1.3710452 -1.0257316 0.06598229 1.3577561 -0.96260387 -2.1656187 1.0353324 1.8839127 -0.5524313
is 1.119116 0.28800663 1.2642144 -1.4168577 0.1488947 -1.1853045 0.91147584 -0.42137387 -4.0308995 -0.7507685 0.70868254 2.2539654 -3.8277602 -2.2643876 -2.5319734 1.8546873 0.7483019 1.6802173 3.742117 2.4959836 -0.48072103 1.0596305 1.4317664 -0.579511 -3.3901305 1.527728 0.051804386 2.6092024 -0.15162925 0.23438488 -0.22484301 2.1107328 -3.8037736 -0.54419327 -0.249965 -1.3232428 0.7825646 0.64141136 -1.7000697 3.115232
how 2.2300966 0.47903445 0.80154425 0.335921 -0.47736955 0.8545094 -0.6637598 -1.4037714 3.029716 2.116891 0.70680743 1.4140601 -0.0415856 -2.4622242 -0.28828853 0.6313057 1.2506086 -0.07096694 0.3204857 -0.61857605 1.0011503 -0.67739195 -2.9050572 0.74161005 2.49554 0.037896384 0.39925048 -5.387436 -0.66646975 -0.4035582 -0.28482854 -1.1155759 4.395483 -1.9523073 -0.24051894 1.7311621 -2.2284317 -0.15764327 2.4092839 -2.4945683
i 0.8530608 0.85484844 -0.7666673 -2.1604373 -3.403499 -4.538269 1.3357123 3.1819239 -2.90105 -0.16641535 2.9966161 -1.3903602 5.8364506 0.5921365 -0.2242538 2.6323926 1.7359796 -5.243431 0.69681364 -1.4690768 1.8841314 1.0888287 -0.45714056 -3.407899 1.5720557 0.16994724 -5.2192135 -4.4514832 -0.23656772 -1.5882702 3.457816 -0.3707378 2.201132 3.1141884 3.6611671 1.9485118 -0.71303266 -2.635514 -2.0970037 -1.1410106
to 2.7638338 -1.664369 -0.86418325 -2.053735 0.8146962 0.8329728 -1.5818027 2.4442446 0.49052092 0.62197226 3.3997366 -0.4022252 0.35029405 -2.78084 -0.03920252 2.6951604 1.8665143 -1.2709558 -1.3306919 1.5848988 2.2824442 0.7459343 -2.4256034 -1.7647843 1.6091167 1.1868978 -3.2226496 -1.360563 -0.72710717 -1.8497437 -1.0417637 -1.4078631 1.1136638 1.0318933 -1.0769945 0.4599582 -0.014944566 0.74969083 -1.6611375 -0.4177004
a 0.7910256 -1.4643102 2.3380945 0.25753567 -3.4600801 -1.0138876 -2.0099568 2.4796174 -1.1901965 0.31312343 0.754292 1.5547143 -0.27184975 0.4162626 2.2332118 2.3475883 1.7119778 -2.4377506 0.171731 0.06903253 3.1631 0.13547266 -1.0014389 -1.8243319 1.3265101 -1.0053226 -0.34417656 -2.77275 -0.08835793 1.3751378 -1.8647059 -1.4534553 -1.9928379 -1.733334 1.0476286 0.9347142 -0.3835812 -0.421071 -1.4865156 0.48546168
in 1.4051243 -0.37795174 -0.05657727 -0.10239192 0.2674931 1.3163998 0.9157687 0.73108846 0.54546666 0.925942 -1.0197668 -0.9034158 1.6412551 -2.848174 1.227643 1.2750707 0.5480038 1.923335 -0.9963081 -0.25222638 0.48731196 2.531811 -1.3876508 -0.64183474 -2.6015773 0.57778555 -0.7134551 0.76106095 -0.43011436 -0.70123 0.5485092 -1.1264333 0.52308863 0.21821077 -0.059678994 0.40348738 0.3526304 0.8153763 -0.25477687 -0.42835158
do 1.1494437 -3.3484137 -0.7570854 -0.6747998 2.345685 1.0282228 -0.035177886 1.2412629 -2.0607843 0.4754723 0.8355224 2.1711006 -0.7140409 -1.7459549 -3.279695 2.0971 0.060948875 -0.11044263 2.3431633 0.37452835 -0.4964073 -2.0780964 0.4339194 -0.76243204 3.920827 -0.014364235 -2.664119 0.06516705 -0.93449533 1.2238703 1.1414422 -1.1562443 2.855693 0.50655967 -2.1035736 0.37880093 2.725972 -2.9935942 -0.86301655 -1.4574271
of 2.149127 -1.2931772 -0.38767606 1.2578466 0.45048878 2.123581 0.75571764 -1.2563022 0.4186585 0.6532173 0.61206925 -2.8906014 0.5532569 -1.0027534 -0.39482915 0.77950513 -1.1346549 2.5906603 0.53675294 0.046973534 -0.7002804 2.161249 0.14143704 0.18679228 -0.37763506 -1.5832962 0.8806146 1.9901073 0.3292583 -2.4389696 -0.40761483 -0.043783788 -0.017820472 -0.7368402 -1.2102951 -0.7964644 -0.4751189 0.5423396 0.12203795 -1.6313428
are 1.1764358 0.8515934 0.6626228 -0.78754413 0.4101327 2.3654044 0.7986613 1.3526721 -1.5860114 -2.3062909 -4.5014977 3.1190605 -3.8706236 -0.8885889 -2.4433725 0.86170304 -0.18467274 1.776899 2.778613 2.403712 -4.5450935 -1.7119433 2.5534897 1.9094975 0.24288231 -0.05340191 -2.6002693 5.167105 2.1790748 -1.1518167 -0.25654998 0.65772706 -2.6632135 0.22917086 -1.6936072 -3.7588017 2.1536834 0.8635077 -0.24247743 -0.7555882
and 0.13425787 -0.38259846 -0.24093512 -0.2844723 -0.43053424 0.45059502 -0.32558128 1.798314 0.89134485 -0.021020574 1.9621944 0.08124274 1.0117488 -1.3016258 -0.14652592 0.8916793 1.2070545 -0.0065926486 -0.562724 0.60585064 -0.5859344 -0.91864145 -0.8974609 -1.544007 -0.24879949 0.23849976 -0.51935697 0.5025373 0.3256127 -1.9527873 0.14440084 -0.66575 0.4315592 0.5421329 0.64083886 0.2570462 1.3877158 0.9690999 -1.6332847 -0.73748875
can 3.1299274 -5.3217015 0.6532803 -0.08482086 3.7802424 1.4455538 0.4736899 1.3304713 -4.5558624 1.5618438 0.53378534 4.429991 -0.8609422 -2.7022579 -1.1150944 3.9459329 1.0742995 0.10322636 6.7075777 0.26142967 1.016897 0.76470715 -0.091525026 0.28021032 4.511927 1.1616337 -3.5621927 0.96310747 -1.9225669 0.20610477 -1.51392 1.6464881 5.358336 -0.8466575 -1.1495161 0.6299418 3.1110835 -3.2631576 -1.5621154 -0.89919335
for 1.6204689 -0.4260637 -0.6011667 -1.0018742 0.3584453 1.7774601 0.94215584 0.88860935 2.4419608 0.31039524 -2.3521469 -1.5123297 1.0159583 -2.2171066 0.50645435 1.7251861 -0.19144504 0.064280234 1.0793455 0.2909887 0.72082096 1.8420384 -3.0276039 -0.53640413 -2.225066 1.3128016 -1.6786675 0.051464137 -0.7078719 -1.1824899 1.0576789 -1.3792181 -0.5216721 -1.3312445 -0.46155766 -0.29603285 -0.53599346 -0.08528005 -0.14490916 1.1293806
you 1.129307 -1.2521381 -0.19523291 -2.734607 -1.3514366 -4.563266 0.01408609 1.8773322 -2.5433307 -1.4248369 5.6786704 -2.189244 0.97759056 -0.06692373 -0.5139268 -2.1849296 -0.43588942 -4.4186816 -3.097445 -0.2162104 1.1748707 -1.8351566 2.3880513 -1.4683847 2.2080052 -2.9418564 -3.5685215 -3.2044363 -0.8364197 -1.9934567 0.57342494 -1.0460526 -0.46694845 4.0601892 0.25223935 1.900148 -5.350437 -0.9323968 -2.9517398 -1.2977623
why 3.5106502 1.2397445 -0.85738134 -0.7604638 0.5936694 2.0088232 -1.1457665 0.7567484 3.7933211 2.473628 0.8839199 0.50385314 0.7894047 2.3300526 -0.77935493 -2.299192 2.3498619 1.9607514 -2.1259725 1.7165247 1.5280868 0.17277756 -4.1259155 1.5829029 3.0423203 -1.3183563 4.191659 -0.94795346 0.6684885 1.3975215 2.7692058 -1.0233305 1.0984703 -0.9986622 -2.1389165 -1.0455904 0.50978595 1.6347786 -0.7264708 -2.7698934
best -3.1284163 -2.5605795 -0.7619691 -4.5268817 3.2745948 -0.069201276 -3.6235807 0.7572521 -0.73964363 3.7463264 -1.2029364 -1.5386428 0.6585303 0.38768536 0.9781185 3.1215901 -2.0920722 -0.7699521 -0.1533725 -1.7967526 -0.49701178 1.5168041 1.0138105 1.1810353 -0.35651407 -4.0144806 -5.5260067 0.285594 -3.336994 1.7822435 -2.6683185 5.211234 -1.5708542 1.5581819 6.9164367 0.84751266 -4.3025866 -1.8741248 2.055783 -1.0936021
my -1.1255733 -1.0202712 2.6364229 2.0409727 -7.2327 -0.5986784 1.0462978 1.8739458 -1.1181872 -0.34922594 3.027207 1.1070861 2.4150677 3.757762 -0.6222856 3.6486523 -0.6680657 -4.1594925 1.3495905 -1.4722009 2.4999096 1.7149817 -2.677216 -1.4404012 5.0253925 -0.5857059 -1.9741151 -3.7711735 1.3950719 -1.1426823 2.4517438 -2.4172637 -1.5829283 0.94388294 2.0124328 2.031567 -0.08098319 -6.062005 0.39702225 -0.7886396
it 0.95675635 -0.3449027 0.58079386 -1.5136766 -2.2148585 -0.5064176 -0.34490085 0.18208653 -1.0381771 -2.8171842 5.907917 -0.27711716 -0.41527888 1.8308482 -0.7861459 0.9245835 2.2812507 -4.306701 -1.9872153 1.0032803 4.553153 1.346055 -0.32358488 -0.50934905 0.27937 -0.1252418 0.59547204 -1.1578729 -2.7542086 1.5681872 -0.5038207 -3.2211046 1.9662802 0.5233662 -0.7249814 -1.0496505 -0.19512194 0.46291313 -0.13185865 0.69056
on 1.1423968 0.032239255 -1.2090844 1.492604 1.3694713 1.1100948 2.5754862 2.671399 1.6073409 1.9088765 1.4556109 -1.6220216 -0.047662955 -1.662361 1.8910017 0.7647674 0.6210919 0.73532903 0.0037602696 -0.30446646 -0.4301173 0.5364442 -1.8004409 1.5698607 -0.24126212 1.0749866 -0.7139997 -0.59590673 -0.19377382 -1.5240273 2.2201667 -1.3869686 -0.68355346 -0.20887241 -2.2038414 2.2208858 -0.29743722 0.5829099 -1.5061504 -0.6132267
does 1.7128977 -4.110368 -1.1846536 1.3311057 3.9546444 1.09381 -0.04428016 -0.69376063 -5.198596 3.1436467 6.720951 0.336055 -0.6519193 -5.3110185 -2.8385987 -0.24560495 1.8836447 0.87185097 7.1328635 0.38402012 1.089003 -1.974316 1.106208 -4.9618874 -1.3200043 0.8696454 -2.5863116 0.96214384 -2.5185306 2.813369 -0.19800664 5.707372 1.2954867 3.7378387 -0.39844987 0.21431728 2.8720193 -0.1540149 -2.6582825 0.5315254
which 4.398111 0.02436602 0.34437236 -2.2734246 1.6144607 0.92774165 -2.6366644 1.7869244 4.760168 1.8362746 1.5464008 2.6627538 2.0733325 2.3120053 -1.1715883 1.6396117 -1.5447536 0.97661644 -5.133143 0.37601063 -0.50891 -2.4493828 -5.2408466 -2.2463284 -2.2961354 -1.8073245 2.292703 1.8288703 1.8218158 -2.6011753 -2.9314845 0.3116409 1.4613023 -2.2683854 4.111209 -1.8000691 -2.3693857 -1.0280501 0.91125023 1.4473597
be -0.1788602 8.050855 2.386356 -3.853075 -5.0245204 -4.511271 1.4321479 2.0110226 -0.798964 -4.5523863 -0.8111315 -2.1208143 0.67849255 1.8506887 1.6431991 -2.4987898 -0.30512542 -2.1314993 -2.7900758 3.1439838 -0.19450451 -0.058726497 1.520708 1.1354519 -1.3742974 2.2939188 3.7354004 1.4149073 3.6721942 -1.1947082 -0.87407684 -3.5537817 -4.35084 -1.7530278 0.5874228 -1.7843369 -1.8651813 1.3471378 0.3456286 2.2463803
if 3.3136392 1.0428747 0.32164472 -1.4163837 1.4471633 -0.030151857 -0.7067842 4.004822 3.108894 2.2547894 3.1515005 -1.6456515 2.5605583 -0.152042 -1.2985032 -1.5775586 0.7003653 -1.4745891 -4.811711 -1.0818747 4.8917565 -4.0716133 -4.4424253 1.4339671 1.9997238 3.7674706 1.6484944 -0.25400695 1.0817593 -1.319943 -2.7434087 -3.013541 4.119764 -3.2781205 -2.299707 -0.7289892 1.4750353 -1.6796284 -2.1943977 -2.3424504
some 0.67942226 0.2864694 -1.2359849 0.011593453 -2.4610634 -1.0269713 -1.5621592 4.5921807 1.8795624 -1.6921414 -1.7163273 0.8286187 -0.17936854 1.3149016 1.1523765 1.3183155 1.3488588 -0.7868213 -1.6868328 -1.4732293 -5.652625 -3.541075 0.5015479 -1.027886 0.001580095 -1.2229153 -4.4996037 -0.031838097 -0.4726704 0.6538663 -0.52954924 1.512517 -3.5614874 3.6043985 1.1704503 -2.2033813 0.8334687 2.3298 -0.6383228 0.8542876
or 1.8802019 -1.3476032 0.15902156 -1.2711642 0.12909272 0.13948594 0.6913221 0.6331024 1.6588107 0.16395181 2.0671294 1.5588614 0.8282014 -0.6132409 0.597368 -0.5820296 0.5321321 -0.6752181 0.8890076 2.370315 0.9220685 -0.85650414 -1.1163434 -1.7873508 -0.54991204 0.60085106 0.6148371 0.27737403 0.2548244 -2.3906524 1.6553209 -1.1362848 0.5978233 -0.5887554 1.6440868 0.26252058 0.10442429 0.890567 -3.1117811 0.49876973
get 0.15486267 3.6698613 0.85980994 0.14268255 -4.0302267 -2.8672528 4.264668 2.5194297 -1.0606079 -2.3667607 -3.144156 1.3220086 3.1327426 3.0985694 -4.204957 -0.99107563 -2.8560212 0.4354844 3.5622592 2.0126116 -0.37417454 -1.7525046 2.1986976 1.1344107 0.6273975 0.38589218 2.3948946 0.025974154 1.1778136 -1.1748208 0.9460737 -5.185126 -0.78870565 -3.405616 3.4802203 -0.8660144 -1.1956711 0.3768746 4.6072607 3.3312612
have 0.3040247 1.2684196 3.5430253 -0.9254998 -2.516462 0.28016636 2.915905 -1.9123577 3.1254373 -2.8556414 -1.0933299 0.13432245 -0.2109434 0.17656991 -0.8485621 -3.4900014 -4.0848675 0.118995614 2.6270897 0.15369739 1.0103191 -0.59328 1.8767685 0.906164 0.26410237 0.994207 1.0913442 2.9418893 -0.59961176 -3.2116435 4.0887566 -5.6760564 -1.5387402 -3.1838684 -1.1522424 1.6132843 -0.2620073 0.092476845 1.863813 -0.97152185
that 4.158938 -0.41534323 0.64639133 -2.0990942 -0.40553814 1.392412 -0.922531 2.1435058 4.318473 -0.1969733 3.8001146 -1.2974178 1.0616175 3.1263943 -0.42072862 0.28224176 0.3590391 -0.059743248 -4.1157637 -0.40534538 3.069116 -2.1585543 -1.1744839 0.54511607 3.3954432 1.403502 -0.7629401 0.77361536 0.31107205 -2.0639515 -0.8635856 -2.8518014 1.76776 -0.69324356 -2.2171564 -1.9188311 -0.23027143 0.7443612 -2.033508 -1.2819486
should 1.8478354 -6.5072746 2.7827635 -2.9421008 3.3093824 1.378198 -1.8614544 0.07192929 -3.648445 1.5349052 -2.1026022 0.3737249 -0.3174869 -1.5613085 -1.8074753 2.0938473 1.6143696 -1.9258612 6.345288 2.439041 1.1384407 4.219119 -2.268036 0.67435557 5.387873 0.41010928 -4.5005374 -0.44212976 -0.8618383 3.8009906 1.9635773 -0.16012068 4.1018586 0.6209006 -1.8414911 1.545387 2.5087514 -4.5855403 -2.0999925 -3.0194268
with -1.2113224 0.208092 1.3064947 -0.9509084 -0.72137207 1.5901223 2.6497018 0.6288724 2.5928688 0.17446701 0.55248517 -0.54195684 1.7362595 -3.3795629 0.42638847 -0.124100424 -0.5923475 -0.5358051 1.1434026 -2.5894585 -0.8775342 -0.6325128 -2.8304448 -2.187853 -0.8851772 2.2254817 -1.8122542 -0.671161 -0.5843297 -1.6581222 1.090194 -2.3493125 1.2118113 -1.3148409 -0.4706172 1.19588 1.2308869 1.5145913 -0.99661845 -0.74045163
your -1.3007838 -3.9842744 3.0414617 3.19787 -4.505718 -0.3595427 -1.6213118 -0.23983933 -0.62247187 -1.282861 3.776658 0.49889183 -4.166487 2.3609383 -0.8804754 -0.12696882 -2.2964606 -2.784087 -2.4950843 -0.8137641 -0.22060145 -1.4848652 -0.75572515 0.9839204 2.9082527 -5.0418177 -1.069012 -1.7303258 -0.7182706 -0.33710945 -0.2307944 -2.806577 -4.503107 2.1187239 -0.42352003 3.1517677 -4.5182705 -5.0214763 -0.2383823 -0.1785763
an 1.4406608 -0.8041001 1.8476051 -0.209429 -3.7751658 -2.3101575 -3.233439 1.6601028 -1.0284213 1.5901253 0.06688992 2.710068 -2.8920202 -0.6934643 2.0917513 3.937433 2.1261268 -3.1259496 -0.72934985 0.27479813 4.6545014 -0.73274565 0.27725473 -0.3850559 0.43467876 -1.7717142 -0.1868988 -2.566893 0.6409211 2.4010751 -2.637353 -1.3193439 -2.9070659 -1.2496254 1.6050584 2.5453343 0.7358151 -1.2720766 1.8794947 -0.9375256
from 1.1721278 -0.83402723 -1.469387 2.4813843 1.0399379 0.81604993 4.0442357 2.109905 1.4496751 2.0812187 -0.29791972 -2.1149452 2.4161553 -4.0014014 0.6257005 1.4706833 0.09193831 0.3428438 -0.7736041 0.08007984 1.3711394 1.9595541 -0.8100249 1.0404966 -2.6243503 1.2163119 0.08008546 -0.75390834 -1.7255 -2.2799797 1.7901832 -1.5838141 3.360662 0.1966743 -0.44084853 1.2552232 2.2065306 0.82897675 0.2829361 0.46237037
india -0.1940637 0.0073673236 1.8232089 1.2958316 -0.9783626 0.9617677 -7.31991 -1.395816 -2.9948926 -2.3856306 0.9638946 1.8394858 1.3630573 1.9887117 -0.94709843 2.3585603 -1.5783482 -2.0332048 -0.43714634 0.7158009 0.88685906 -1.8900573 -1.0423518 1.3429505 2.008314 1.946568 -0.3955107 1.3645947 3.479005 -2.094117 0.6949117 -1.6362474 -0.58470047 0.9796225 3.449235 -0.09068493 1.394903 1.237386 1.565812 -0.44471553
will 0.67389995 -8.110693 2.0607834 0.12812243 3.7386062 2.4851377 -2.71772 1.8014232 -6.444228 2.3561716 4.090416 2.0824862 -3.6948678 -4.2522135 -0.045967206 3.0323586 3.0409384 0.5839136 7.346361 1.3547301 1.1797869 1.7766464 -0.7554971 1.3788799 1.2212536 3.8628654 -2.5986962 3.555949 -0.6086377 -1.143272 -2.1424475 0.58930254 4.086418 2.8360953 -2.698442 3.3231835 3.282206 0.5274729 -2.5163815 -1.6001029
people 2.7753081 0.34875098 -1.8384719 -2.9852657 -1.7495034 -0.04256964 -1.7012852 1.0156907 -2.960929 -1.4804249 3.3203585 3.5618768 -1.6010048 0.9447183 0.8781289 -3.2340014 1.346869 -1.4926397 -0.9875772 1.9178253 -1.0488324 -0.617059 3.1808178 -0.4901974 5.0914235 -0.24164028 -1.7572498 -1.787117 2.6154816 -1.7230154 3.8104415 -0.00034823353 -0.97160685 8.393363 0.2360809 0.55368763 -2.0096333 2.2450202 -3.3362808 -5.595171
who 2.391962 0.92555064 -0.12186352 -1.3184605 2.5721276 -1.7000688 0.15554708 0.62294644 3.811006 0.46467316 1.1988553 1.9512609 2.2727897 1.9634334 -2.6430447 0.029549528 -1.9008751 -1.5750934 -4.9145713 -2.1025274 1.099475 -4.386879 -5.1048613 0.6387592 1.1526053 0.6064027 3.4036334 1.5393618 1.7635503 0.43604425 -4.057297 -2.6610866 3.2028034 -0.07019607 -0.633072 -2.1786141 -2.3248897 1.9683877 -3.252437 -0.54392016
when 1.9487054 2.9810195 -1.0233003 -0.4578853 1.5407097 2.2044036 -1.1172286 1.8332474 4.5194726 2.8152566 2.7844584 -1.0013039 0.95467466 -0.39155346 -1.4648097 -0.7721895 0.29215807 0.1553806 -3.302717 -0.23825322 1.9550374 -4.512191 -5.1032205 1.8878978 0.9825437 3.992989 -0.39640898 -3.4330003 -1.1819743 -0.024466673 -1.2864939 -3.7912998 1.7756267 -1.2057431 -3.7807083 -1.9171412 3.2002773 -2.5428927 -1.944503 -2.4548292
like -3.7153075 -0.58043504 -0.48365796 0.1712962 2.9657235 -0.7872922 -0.08053707 -0.047873516 2.1732152 0.1060586 -1.8627927 -0.60522985 -2.1927245 -0.31588066 1.2946413 -3.520186 -1.0703616 0.30236846 0.72713923 -0.84938055 6.4032354 -2.2382529 -3.6540232 0.717419 2.1608226 -1.4568506 -0.12273956 -0.750778 -2.0710223 2.750052 1.3927976 -0.43428737 1.4676293 0.8033847 1.7064276 2.1479576 1.7561992 -0.664469 -2.0666437 -2.317456
good -0.943164 -2.555778 -0.17639524 -4.0886135 1.9226243 1.2587632 -0.74502593 -0.06095745 -0.079386115 -0.25739798 -3.111219 -2.0541422 1.8048327 2.731551 2.564978 0.74006057 -0.6435119 1.9122244 1.0237426 -0.10919934 5.0704694 0.056614887 -1.2298698 -1.1321882 3.9163697 -1.4048206 -4.486603 0.29621938 -1.4578357 0.7745217 0.4027009 2.016758 -0.5998015 0.40514013 3.0844975 -0.41238654 -1.7962656 -3.398058 0.41759294 -2.2908666
would 0.5669681 -9.214703 3.3431053 -1.7501137 5.30362 0.83066505 -2.3190737 1.193764 -5.286624 0.87845445 4.8377175 2.086489 -4.5124884 -5.344356 0.5363707 -0.362151 1.8965782 -0.99443984 4.0403233 1.2125376 1.0526567 0.46811926 -0.29440966 -0.95622456 1.9748871 -0.4223315 -3.08422 4.7532883 -1.7145827 0.17887896 -3.4292033 -2.7303312 4.8254166 1.5020707 -4.161563 3.4807172 1.0643556 1.0272778 -4.4695415 -0.19531047
at -0.7409422 0.47290424 -2.0571434 1.8701863 0.67788595 1.3597403 3.274605 1.7289537 1.0679606 -1.3722646 0.13532381 -2.619406 1.0323925 -2.2044873 0.13438459 0.66275936 1.2203557 0.75077266 -0.5238354 0.20026049 -0.7997627 -0.3959427 -2.3322828 -2.2597878 -5.1325927 1.5185956 -0.93547094 -1.6153469 -2.2206144 0.3747496 1.5543216 -6.8609204 2.6221423 0.78619516 0.7418593 1.3875415 0.6977363 -0.19759098 -3.0844865 -1.6148405
there -3.1189291 -3.4036217 -2.6657233 -2.7088075 -0.87228173 0.410161 3.4094024 -2.9231038 1.7689732 -0.20607288 7.1160717 -0.67762405 4.2906804 0.20401962 2.4721098 -3.2342098 -3.3919766 1.2648109 2.569759 -0.833602 1.7592384 0.86050564 3.3974273 -2.444793 -0.76093733 0.91283906 -4.1713634 3.7397578 -1.6962457 -4.3567142 2.317327 -0.6354423 1.3284035 2.9794688 6.0761795 -2.1480892 -3.5562627 6.1489196 4.5785937 -1.0290277
as 2.096486 1.7372292 0.31253818 -1.6576004 0.25351802 -0.3734812 0.47163782 -0.94612306 1.4401759 1.0804377 0.16954367 -1.7462863 2.3141184 -1.8192658 0.6185272 0.3374824 1.5198756 -0.77318263 2.2219725 2.6089914 2.8398576 -0.8519526 -2.0721972 -0.026655395 0.62686384 0.883757 -0.3138648 0.7212991 -0.3863982 0.57820994 -0.25498885 -3.0952914 1.1476471 -1.83307 -1.0104657 -0.62309057 1.8467695 3.842799 -1.1835653 -1.7650884
quora 4.342244 3.2062085 -2.4427648 0.33018565 1.6600115 -1.8468821 -3.6226556 -0.8081099 4.916963 -2.2816775 6.7773595 1.1367143 -2.155968 7.010439 -1.7523596 -1.0382183 -0.70810544 -4.0353827 2.4776373 -1.4089692 0.98030293 1.053746 1.4423474 1.2141519 11.325212 0.42858034 -6.1369295 -0.2668191 3.2013788 2.0488734 -0.2845238 -9.619733 0.29086927 3.4808526 -4.1960177 -2.1927626 -1.8280354 0.34557176 0.2091735 1.9420112
about 2.4437497 -1.6604135 -1.0082755 -0.8838137 2.0481777 0.08872113 1.1377419 -1.2010661 4.511745 0.58983374 -2.7821264 -4.608419 0.1949653 -2.0414703 -2.6934092 0.6273018 -2.0864437 2.6864774 -1.2626824 0.3313238 0.7323761 -0.728355 -1.2408946 1.2761172 2.0307174 1.9363301 -0.5335802 -1.5891695 -0.54389393 -1.1006215 5.009354 1.1784797 0.41520202 2.058568 -3.279447 -0.0073862006 1.0207657 -0.5263771 -3.696245 -1.7154309
not -1.9697865 2.1045454 1.148705 -2.5512757 -1.7665685 1.3555839 -0.2437966 -0.28628665 1.5886326 0.48997214 2.017825 -0.42781386 1.0856547 1.4397743 0.8793599 0.74079216 2.1010492 -2.8065724 -0.14364897 -1.4345589 1.9488459 -0.2495947 2.8139029 -0.7533764 0.62329334 3.1467783 -1.7533559 0.74090475 -1.5442821 1.3558655 4.2147393 -3.2347484 -0.4500042 1.3597474 -0.8925185 0.9845552 1.0810524 1.3823073 -0.54529303 -1.2165115
between -0.48604742 -2.1730695 5.4326777 2.519145 0.35725564 4.557865 2.0838542 -8.937174 2.6313796 5.5924325 -8.228323 -5.49256 -0.5868544 -2.18686 -0.39775997 -6.206455 -1.2129067 -1.3870926 3.6173377 -7.0296087 -1.9563383 9.870127 -1.7900862 -0.50131655 -2.3880827 -0.3052604 4.9598813 -3.6481998 3.7595592 5.375443 2.5589912 4.151635 3.621071 -1.6981884 -0.79916745 -2.9869745 -1.4756119 2.3997817 -1.5314556 3.5072114
one -0.5652083 -0.1340109 1.4596965 -0.6406992 -0.32617855 -2.1488364 -1.2573729 1.8986428 1.043512 -2.845095 3.904011 -0.3716638 0.4937071 0.017093964 2.018556 0.5829875 -0.1286513 -2.7597492 -2.0180418 0.4458504 1.0941498 1.3740242 1.3476722 -3.486259 0.2902602 0.16279398 -0.56635875 -1.137419 -0.61010224 -1.6283149 0.7216805 -2.900245 0.2494009 0.57050157 0.898855 1.7141242 -1.8568281 -2.0249484 -3.3583422 -1.4527587
most 2.0153685 2.064734 2.3344605 -3.754602 -0.14586174 1.5793178 -5.4080977 0.3680744 2.9031873 3.790847 -1.9100342 -1.0756947 -3.2359233 2.8720932 -0.44369093 2.4510407 1.2183685 -2.4376872 -3.5389893 -2.393216 -4.2621965 0.6077771 5.768098 2.8356817 0.44588727 -4.452863 -2.2962794 0.8382674 -3.4039712 6.7902203 -2.4525864 -0.28196508 -1.7910695 1.7862068 1.6312348 0.9585847 -4.5028744 3.9284809 0.108713344 -1.0411797
way 1.1178547 -1.1576769 -6.3432107 -1.1001947 2.9233387 -2.748569 1.0764763 -2.3357856 -0.71457964 -4.562073 1.4542832 4.259844 -3.0532193 -0.027470011 -3.1992676 1.9790567 -1.4332908 -4.2400284 0.31394905 -3.292987 1.2995446 1.4171687 -5.3621507 6.6590104 -2.4627833 -0.66718346 3.185852 -3.160322 -4.2573457 -0.016355816 0.46904945 2.4845216 6.6519194 -1.5294887 -0.6847629 -3.4038515 -1.0471333 -5.2485003 -3.6664994 0.2469403
we 1.1737278 0.5913472 -1.4225262 -0.52929455 -2.8853333 -2.24525 -2.8094406 2.0957637 -2.9361699 -0.38031998 6.411809 -2.2504663 4.341008 -0.1509202 3.4469023 -1.7043456 1.5315326 -2.5626554 -2.5010364 0.67314035 0.17608185 1.9820834 3.27919 -1.5959754 3.814994 0.91186047 -3.6508427 -2.5270078 0.823916 -1.6137784 3.863168 0.36927095 1.5086291 2.9395888 2.8920763 -0.30640355 0.12890989 -0.54872465 -2.9159467 -2.9171214
make 0.84152204 4.6848397 1.3885406 -0.3474267 -0.15090288 -1.1259272 3.655423 2.3744743 1.9519298 -3.3679085 -4.359936 -3.9939814 -0.2825051 2.0225434 1.7505822 -2.654656 -3.9037364 1.5353643 2.0737565 0.026887612 -0.42910737 0.049321838 -0.51927704 -0.2694156 3.2837 0.41139573 2.135933 -2.7170944 -1.0466362 -0.20872092 1.8826945 -2.127108 -0.11237999 -1.6178322 -0.23797588 0.9902245 -0.08381924 2.8894775 0.14036714 6.213657
did -2.1249082 -3.6852531 0.88590753 2.0816336 5.6810913 -0.18346621 -3.4350064 0.044566702 -5.135074 2.3084643 3.735475 2.6018043 -0.5306911 -6.6158276 -3.6439898 1.1983405 2.048531 1.1460066 4.982298 1.9359275 0.7689825 -4.6633897 2.0263352 0.27119792 0.6994254 0.08333461 -1.6167755 4.18184 -3.3370728 1.2260739 0.9423596 0.50775695 3.6482882 3.7595801 -7.2606707 1.7967142 2.6120493 -2.340673 -4.5167446 -2.2292018
life 4.253654 1.9444597 3.5365438 -1.7669158 3.0499535 -5.5237265 -2.2714338 1.1527545 1.1755908 -7.007483 2.5400085 -2.507269 -1.7984475 2.3901525 -4.9707217 -1.5506816 3.9195573 -0.44591266 -4.052575 -1.1437664 -0.4073305 0.2628919 -0.6141111 -0.07914666 6.5677958 1.1070434 -3.6113007 1.444962 -2.680073 -2.4882658 -2.2687404 -4.792769 3.4757566 0.8566385 1.3679842 3.5861547 -0.85895205 3.17869 -3.6488316 1.0603323
by 1.4224328 1.6924335 -0.036774095 1.3936708 0.9601669 2.4648242 1.7396317 -2.215794 2.0820796 4.3565955 0.68859035 -2.8559656 0.9708502 -1.9169679 2.211101 1.8299074 -0.8125609 -0.7555962 0.0010346378 -0.3517287 -0.7483496 -0.7537153 1.6564062 1.4639953 -1.097377 3.5247488 0.5334579 1.5731976 -1.1571977 -1.8602247 -0.90766317 -1.4183834 1.0210901 -0.24349728 -2.2546327 -0.385322 0.7115012 0.7636243 -0.87398714 -1.0062397
where 1.3852018 2.654072 2.012638 0.68669707 1.2028476 1.700553 -0.5487815 0.5005011 4.3619094 2.3059363 -2.698373 5.446699 2.1547108 -1.3084726 1.5339799 2.2817926 2.4001532 4.371095 -5.21204 -2.084013 2.3185732 -0.32882467 -3.3723397 1.1500816 1.7874359 1.4468541 -2.0479865 -4.3621993 0.21760407 -3.0333173 0.38815764 -0.05442069 3.6720204 -3.035535 -0.39489222 -1.1346182 -3.2671914 -1.6372302 2.4859374 -2.6676338
was -0.6237538 3.804926 4.9413743 0.502087 -0.44438824 -4.2882686 -0.36149433 0.5953752 -5.0553417 -0.9988392 1.4009782 1.0539148 -1.9676534 -2.3306873 -2.9433289 -0.9829088 1.2758971 0.24735853 3.3904374 2.3073876 0.8976134 0.5034418 3.0329115 2.0587003 -3.8606877 0.5948663 2.6637561 3.7654083 -0.08899846 0.2132288 -0.30776173 -2.0212905 -3.7631 0.24758756 -5.3711157 0.43370748 0.8484777 -0.391058 -5.7848964 1.9273765
money 1.2853516 0.14555141 -1.5976888 -2.6883752 0.69908893 0.061820462 -1.8854928 2.4852102 -2.820443 -9.089989 5.413492 1.9340701 -1.2642919 2.1613817 0.7776328 7.605033 -3.437338 -0.538483 -1.319182 1.9741669 3.1680217 -4.855721 4.28623 3.8802044 3.8414865 2.141115 0.63501924 -1.4302676 -1.7348691 -3.5587187 -1.0312608 -4.6188564 0.7804896 -0.34196985 1.5581629 1.9455419 -0.032504484 1.82516 6.5969224 -7.848009
any 2.3070443 -0.2508109 2.5706818 1.5176203 -4.4443483 -0.9976221 -3.3408759 6.641969 3.652598 -0.14233544 -0.61188334 5.245843 -2.4355092 1.5234028 2.7323596 4.065116 5.5541863 -1.3334035 -3.0513701 0.30044177 2.8118796 2.371448 0.027318288 -0.084360056 2.676931 0.5298233 0.6615041 0.14839585 1.9194086 0.38469294 -0.59913784 2.188 -3.6703627 -0.93634945 1.9409717 1.3504819 0.36178276 0.87706816 -1.0349905 1.2511734
so -1.0823767 -0.043245036 0.66383046 -1.455639 -2.704748 1.5884337 -2.4806385 -2.2558732 1.8085216 1.0857854 1.1125923 2.0558772 -2.8388562 0.42504236 2.050672 -0.9015642 2.9254982 -0.1174321 3.5296762 1.1105577 -1.0597506 1.271585 2.1399317 0.76311064 1.7291627 1.1820319 -0.6357619 -1.4813657 -3.6160104 1.4324281 4.7301936 -2.5596015 0.47391534 3.6023066 0.4958653 3.0485258 -2.26954 5.470671 0.95130783 -2.3864949
me -0.45583093 0.26793715 1.8669987 -4.8803535 -3.1627328 -0.17142202 0.46514508 1.7610883 1.8775178 -4.2652645 5.57306 3.6267912 2.2942643 4.4937167 -2.689309 2.5475929 -0.14827542 -4.080623 1.3968183 0.12433694 4.3841767 -0.3726702 -0.0026495964 -1.3580238 5.2371345 3.799073 -2.6557565 -2.6382184 -0.43810028 -2.1521704 -0.35230434 -3.8446703 0.053015504 3.0641356 0.13048066 -1.0716121 -2.1523814 -2.9838183 -2.4878328 -2.7473261
time -0.45085698 1.8484033 0.021744128 0.27474144 0.8653141 -3.0114477 -2.300802 -1.4013847 0.26457188 -5.746901 4.334713 0.2604025 -0.5819722 0.15678944 -2.7099998 -1.7235743 -1.4982716 -1.5256268 1.9913259 3.5240273 1.0575527 0.71210456 -3.3131826 2.2748091 2.2838163 1.2567339 -3.0252588 -0.66992337 -2.4316916 -2.9623353 1.5513531 -5.5511785 3.440228 -2.5450594 1.5630393 -1.3128706 -1.20861 -1.2591847 -2.58892 -3.3638992
after 1.7430204 1.3184421 1.2927341 2.1898148 -1.1807351 1.4593914 0.6160519 -0.69636774 0.5903884 2.9665816 -0.9400375 -4.4066677 -0.13471578 -2.5107348 -1.1333413 -0.41254887 -1.9396284 -1.7167734 -0.46204072 -0.47888932 2.826283 0.13876942 -3.4415169 1.5225928 -1.6517855 7.540723 -1.51883 -0.729031 -1.7538483 -2.6008303 0.75410277 -3.9777725 1.3137157 0.61416876 -2.3977604 0.7103442 2.3137476 -4.394677 0.18030187 -2.646118
learn -3.9351761 -0.5013545 0.3348925 -5.7854223 0.09746819 -5.185359 0.96758 0.14849302 2.301978 -5.637982 -2.9141436 -0.53721267 -0.92376316 3.3254683 3.0533159 1.7307082 -6.132195 2.9368708 -0.89635545 5.544348 -1.7748733 0.71256506 2.0999403 -0.72240096 1.512155 -2.841626 0.07439591 -3.0988276 -0.16486351 0.6400742 0.53831136 -6.5527706 1.7761296 0.89548826 3.7558618 -2.9759493 2.7985213 -1.6843147 5.3970733 2.528517
they -0.025289966 0.3077525 -1.3918163 -0.04931909 -2.3142064 0.88605267 0.34494698 3.545847 -0.31145328 -0.6159992 4.6188536 -1.3596251 4.144142 0.3493652 2.058986 -2.8066604 3.2956827 -5.094634 -2.864768 0.5030918 2.1423628 0.3661568 4.676086 -1.0663011 3.1628761 -1.771411 -2.831573 -0.41544876 0.7021798 0.111821845 2.2988703 -1.8686727 1.5391015 5.424438 -0.93285406 -1.3588141 -0.8598643 2.6377404 -2.5146637 -3.490824
know -2.5621452 -1.4406521 3.3155508 -3.1853852 -0.33431655 -3.5488296 2.4697747 2.9520674 3.36085 -4.84068 -2.524943 -0.9913961 0.25165707 5.3950887 -0.904093 -2.156916 -1.203206 2.118943 -1.2945219 -0.74853075 -1.8133997 -2.1637967 2.7999446 3.283922 2.721969 1.7157669 -0.23901299 -3.2231061 1.5970312 1.175276 2.6826637 -10.129855 -0.41736728 0.3537938 1.5232314 2.153791 3.879583 0.7916764 -1.236365 1.7154356
this 1.3681294 -0.5444656 1.694256 0.73649323 -3.909572 0.38470584 -0.8267255 1.5018718 1.4688534 -0.4110665 3.5843115 -1.4980513 1.8802088 2.3790207 0.85860956 2.747882 1.2419672 -0.16944282 -2.1708376 -1.714636 1.5324152 1.4183706 0.078129165 -2.2058477 2.1393173 1.4169488 -1.5749555 -1.2178849 -1.4155674 0.096435554 -0.93629456 -2.8017464 -0.7434717 1.2669301 -2.1165926 -0.7021149 -0.018519826 -0.67104685 -0.14552288 1.2039881
difference -8.282431 0.13666275 -4.211826 -2.9055364 3.2038386 -1.869257 1.8131871 -3.6595123 0.9477712 -0.50591445 -1.3994951 0.8052786 -2.2530222 -2.039667 -4.505712 4.4136953 0.37799734 -2.2361467 -3.01009 -5.4248705 3.8881574 -5.355518 3.1861513 0.8118502 -5.5587425 -3.7001162 1.2676333 5.109005 -2.3928003 -1.4648204 -1.6394372 2.0085351 -0.94918704 -5.044116 4.690774 -2.0808141 3.2887487 -3.1433847 0.25704166 -1.5378277
has 1.3511274 -0.035853345 4.1203113 1.2076833 0.077286355 0.29749975 4.224163 -4.0994453 -1.1291035 0.6480183 2.0836573 0.69837075 -1.0669224 -2.779258 0.28218013 -1.9002147 -4.5611067 -0.5148924 6.1087866 0.041575164 0.50452405 0.16317335 3.4868407 0.47006026 -2.370457 4.4781466 0.79732203 6.794679 -0.28388315 -4.421972 2.321762 -1.4556648 -3.1872787 -0.84017164 -2.0928972 1.8142245 0.03005441 0.6319361 -1.404556 0.93367904
whats 2.5633843 0.76809466 1.015051 -2.646797 -0.857088 -0.47107694 0.29922783 -0.2577521 -2.6997828 0.6334309 3.1018205 2.4929364 -2.4034548 -2.5385103 -4.3441033 1.7011054 -0.7872728 2.306231 0.73075926 1.6695617 -1.8567282 -2.5332892 -1.2174553 -1.9606563 -2.9611218 -1.299068 -0.9982174 -0.004411373 0.1094744 -2.4166887 -3.3222847 0.99637973 -3.4732692 0.6829469 0.28988853 -0.8764863 -2.425359 0.69979674 1.2410966 3.2702796
new -1.238663 -0.87045205 1.8552197 -2.4168599 2.3594706 1.8045256 0.05526833 3.1696622 0.45072448 -2.8884995 -0.012540317 -4.015541 0.9239941 3.1610453 -1.9373527 3.434959 -0.47239652 0.46378165 -4.366963 -2.2663724 2.0545466 -1.9901372 0.10827996 0.21070296 0.95495594 -0.4707834 -2.7542727 -1.5688385 2.450612 2.5993493 -0.17541337 -0.831398 1.4715933 1.6762879 -2.388635 -1.7308402 -0.78480285 -1.7763361 0.8248809 -1.0390002
think -2.275208 -2.0185785 3.8875349 -0.7575175 1.2543919 -2.904358 -0.8618346 0.25278845 2.5999339 0.46469066 -3.6593294 0.4943014 -5.3181915 2.8666344 1.0910423 -2.761144 -0.042937364 3.6051934 -2.6900692 -0.1528866 -5.4041543 -3.5819187 -1.3552244 3.9352834 2.4999142 2.5504215 2.848207 -2.0422173 -0.22014672 4.8413525 -0.9613599 -6.336145 -1.3450583 3.226669 -1.5644549 2.9691052 3.2801178 3.754006 2.3292952 0.36528662
trump -0.463654 -2.887701 -5.0443316 -4.5744667 0.34501386 1.4228908 1.7461768 -2.693299 -5.2007027 -4.3501534 4.1439157 -3.0519607 0.87681925 3.583126 -2.5202322 1.3956295 3.0155067 -4.800873 -4.079373 1.3144846 4.811903 -0.9909428 2.8197918 3.4013362 1.4613386 2.2820208 5.6502156 2.8770432 0.77542686 -0.01393429 -2.4007945 -7.046371 0.8331694 9.9430685 -5.4061213 -0.8019503 -6.7933836 0.5163032 0.5450671 1.6496977
am 1.8051075 4.7383714 5.450647 -5.3061323 -5.29023 -0.9946291 1.9315974 -1.0944806 -4.3297577 -1.8348688 -5.272995 -0.307549 -0.07962885 3.197851 -5.213205 4.30032 -0.27224883 -1.8212546 5.9031215 1.5058485 4.748668 4.316709 -1.0695152 -1.41525 3.3499353 4.1218224 -2.7910573 -1.1090621 2.6571512 -0.34836835 3.3048694 -3.7385325 0.5108889 -0.019805668 0.35615164 -0.18680698 2.6784863 -2.996778 -1.6342385 -1.040925
use -3.8921921 2.3201425 0.055596773 -2.9419286 2.2092173 0.04777538 1.0346586 1.6183242 3.187433 -1.7772752 -0.5141978 1.5899398 0.2705893 1.5337497 3.6886413 -1.9166502 -0.41642848 1.3270711 2.224961 0.5343431 -1.9691044 -0.83554465 2.0596437 1.8942497 0.82285637 -2.31508 1.5526235 -1.7868466 1.0293615 1.4228798 2.399702 -1.9420719 -1.7678431 -3.7947717 1.7145892 1.026807 2.2928767 -0.49766588 3.509526 0.34414744
ever 2.787276 1.1560342 1.0948465 -0.38783115 1.9437679 -1.5851146 -2.207014 0.31375638 3.3193095 2.2138515 1.5750492 0.6978776 -1.0102855 -0.6119528 0.82641226 -0.7851274 -2.109541 -2.8583395 -6.825861 -2.351959 2.0964434 -3.567755 0.3352825 2.1671143 -0.5708016 1.5410439 -0.6124405 1.7711647 -3.8249724 -1.7536918 -1.3625041 -3.1725624 -1.4623958 -0.67079395 -3.2247171 -0.10935437 -0.9246234 -2.5652425 -2.5964282 1.0074574
much 1.2105525 3.5113876 -2.0358424 3.296474 1.63921 -1.5905833 0.18754777 6.524885 -1.9910302 -3.7496974 1.5085746 -3.359991 1.5761495 2.3287044 -0.58533144 2.0140493 0.53361696 1.1656195 -4.370088 0.88197875 4.9408097 -4.714538 -2.742198 -4.177151 3.15954 1.9707574 3.3562214 0.92045426 1.7596265 3.2493434 -0.16679783 1.3648775 0.6117056 -1.1161882 -0.780645 -0.7989031 1.0737925 -3.1717687 0.110881485 1.5085425
indian -0.25332743 -1.2512676 -0.08797843 2.3704767 1.0295036 0.6574928 -3.677986 -3.8046079 -0.17215343 0.43908966 0.3875096 -0.9428969 1.8847195 0.4171932 -2.3532047 2.74393 -4.8597765 -2.5784698 1.4193543 2.3416715 -0.9107243 -3.8856487 -1.7959572 -0.38765705 1.8020188 0.5707954 1.2863178 1.6940216 1.5536166 -1.9510849 -1.4944178 -1.6234498 -0.42708302 1.6303769 2.9476328 -1.4503564 3.0366154 2.2447317 1.3187644 -1.2454578
all -1.0200871 2.5320814 0.8688784 0.80701554 0.17760222 0.014497824 -1.7114452 4.485312 2.490485 -0.37898245 2.719314 -0.10162715 1.2020063 1.6377984 -0.7174239 1.4193615 1.5343044 1.2022266 -2.2810967 0.6248528 -0.85521436 -0.63269097 1.8585286 -0.18257566 1.9445665 -0.081233375 -1.579129 2.0364213 -0.5412728 0.4369882 -0.6902006 -1.2722553 0.098170124 0.6926942 0.35960868 -0.6028511 1.1011394 0.8516987 -1.0530044 -3.2389202
many 2.3427324 2.9887455 -2.9053938 5.0151052 0.074938774 -1.2568718 -0.4305101 9.842706 0.6951042 -0.26735815 -1.4202551 -1.9469347 1.6642473 2.5598173 0.3448869 0.6959703 0.07942581 -0.41559422 -5.5320873 -3.8266857 2.1823368 -2.6898463 -0.5860152 -4.0340447 3.0668035 -0.14773676 1.2489911 4.9258604 2.957582 5.605617 -0.40179956 0.22018032 0.74640274 0.7003163 -5.0164075 -3.8311357 4.2901454 -1.9299555 0.2547783 0.43126944
their -1.9226617 -2.6796374 1.7817972 5.243119 -3.7135396 4.7080226 -0.3213838 0.010952485 0.9787419 -1.4490496 3.1105592 1.2657069 1.3983924 0.4076309 -0.71871084 -0.75154305 -2.2788446 -3.911624 -0.5438104 1.210559 0.31750372 -1.6709098 1.0849395 -1.4415413 5.8993554 -3.9468904 0.06506582 1.0203949 3.098852 0.9006126 1.6047629 -2.6042552 -0.38303253 1.7772412 -0.4815653 -0.9130525 -0.086832 -1.43171 -0.9188731 -2.9352658
work 0.09413145 2.974008 1.3541682 -0.8912548 -0.2500888 -0.17173879 0.44272903 1.0175836 0.9702438 -5.9270782 -1.3153172 0.817439 -0.48227683 2.4803917 0.1898932 -1.8287952 -0.12798578 0.20437789 0.72597635 1.6710646 4.073273 -2.0280652 1.6907264 -1.0536985 1.1089351 -0.9029311 -0.27750486 -1.2757221 0.70140654 0.41990373 1.3525381 -3.76418 -1.6548371 -0.8500333 3.1783555 1.1147021 1.6737 -1.8259847 1.90686 0.33897442
online 1.1682243 1.1593727 -1.8409821 0.20260537 3.2123694 -0.9347121 0.21560968 2.2990668 1.6971176 -1.9786203 -2.5785532 1.1408861 2.7727606 1.2767601 1.5316607 4.230115 -1.5239038 -2.3092282 0.23429494 0.2360182 2.9004927 0.55742735 -1.2906735 1.0934498 1.5007619 -0.15664856 -3.841583 -0.30332267 -1.4316788 -1.167503 1.3223107 0.14685285 2.2979236 -1.5555451 2.483131 -2.173172 -0.1703341 -0.785121 1.5797743 2.2412176
us 0.054947086 -0.19903181 -0.5469507 -1.6565477 0.0618842 2.8089812 -5.072455 -1.2916564 -1.4843094 -1.6377909 2.1942878 1.0536047 0.2964693 -1.1180512 -2.857864 -0.03168508 -1.0478593 -3.017013 -0.56420964 0.85155654 3.9349601 -1.6094469 1.4041902 0.60651326 0.7773537 1.3284397 1.6909591 1.6614145 3.631852 -2.030381 -1.9791149 -2.4899225 0.6221027 2.6996922 0.41487163 -0.7256979 -0.29465994 1.2628734 1.4393964 -1.9710373
start -2.0752668 4.4728866 2.5983531 -4.3173265 -0.76643926 -1.9926264 0.22704813 1.4028028 -1.4823314 -5.69822 -5.112667 -4.989649 3.9818933 1.5026625 -0.5158061 1.432568 -3.6363099 0.6347108 2.000036 1.9850945 0.74434304 1.0367512 0.709741 0.6254433 1.3642471 -3.2636168 -0.10544578 -3.1043174 1.1838695 -1.8416846 2.6687627 -4.177869 -0.95785797 -1.6793839 1.8645835 2.1159499 1.9027736 -3.0047395 1.3745136 2.0879464
become 1.458178 4.625567 1.0989856 -3.0062747 -1.4502668 -7.5237064 0.42177945 1.6988838 -0.7980877 -3.4470332 -5.7311554 -1.2623073 1.5031159 0.93041706 -0.6817282 -1.6631247 -2.4036088 0.7939021 0.26269484 2.5266962 0.14232364 -2.1664045 -0.8598096 -0.7030805 2.2004426 0.15906054 4.9612193 -0.2735181 2.6582084 3.1743834 -2.096454 -4.726938 -0.4188348 -3.7091937 1.7828552 -1.0419154 0.09148535 3.832414 1.4066 4.734791
find 0.48536754 1.6947429 2.0334132 -1.4904946 -2.7980795 -3.1647 5.5797815 1.668834 0.91849196 -2.6085205 -3.1688285 2.0116339 3.5042083 3.631923 -2.4734023 -1.0347028 -4.6140447 3.4343433 2.5813107 -1.7610986 -1.805127 -0.1362687 5.6279497 0.8645185 0.03259529 -1.5778036 0.93927664 -0.5418874 0.22833513 0.74090457 -0.3625942 -5.57191 -0.9723966 -2.6354284 3.1796892 -1.795844 0.028010737 2.6739995 4.9156685 4.7243104
more -1.354957 3.8054721 0.43274572 -3.5917835 0.83496404 3.490563 -1.220937 0.11042471 1.7064451 0.25376162 0.33646038 -0.11002913 -3.2763162 1.8963526 3.3811846 3.617194 2.5141141 -2.3241167 -1.8260183 0.17878775 1.3123857 2.2687662 3.833114 -2.9120433 4.8893085 2.568252 1.0408032 1.8008373 -0.73540574 6.417898 -0.34465903 -0.5475836 1.3590001 0.42789763 0.21459994 0.5102009 -2.8699782 0.2407189 0.47989106 -5.014328
someone -0.22015314 0.08626133 0.825274 -4.721336 -1.8957705 -1.9020383 -0.53111595 2.315976 0.5157928 -2.5338109 4.343271 3.8819008 -2.243794 1.5155519 -0.15545161 0.84191585 0.95957536 -3.6955516 -0.8448849 0.20640539 4.314862 0.6498508 5.0529633 0.6719091 4.94244 0.40071625 -0.46563244 -6.0825763 0.50572133 -2.3502738 -1.671276 -4.1677375 -2.728196 3.5747406 -0.41376367 2.2257433 -3.7984653 -1.5080684 -4.008807 -2.5945685
than 4.032175 -1.338238 -4.2539654 2.6457574 -0.05721047 -0.47460136 0.8661547 2.77428 2.7102752 1.5610881 1.8617547 0.2762893 -1.4800633 0.10379082 0.17640504 -2.7706268 -1.4094925 0.40967527 3.0844674 0.006704627 -3.4498656 -1.9221114 -3.8030841 -4.5228643 -3.103216 0.72031975 5.678348 2.1093786 1.0204896 -3.679772 2.3762689 -2.2558782 3.6286705 -0.40472317 4.7688775 1.8573687 1.6758121 6.5803456 -5.1251483 4.748085
world -0.39864528 0.5653742 0.9787397 -0.50397766 -0.30808386 -0.7375928 -7.2590184 -2.5410326 -1.3328278 -3.360337 2.6316962 -0.3981841 -1.8315923 0.7189012 -1.8723097 -1.7967647 -3.5498133 -0.69476515 -1.9975319 -0.52595145 -2.4316223 0.78807986 0.15986727 0.8462306 2.4001791 -1.1922123 0.9877965 2.7397444 2.808121 -2.1085503 -0.29679966 -4.4853864 4.27868 -0.5648242 0.13722852 -2.4374623 -1.4815103 3.8321612 -1.905505 1.2581592
without -2.294726 3.350248 -0.19655578 -0.7709674 -0.5205288 2.9242752 5.267549 -1.7316203 0.43814424 2.9867263 0.27959087 -1.676154 -0.073276095 -4.5225854 0.47096178 0.01944052 -2.1051898 -2.016818 0.008262597 -1.4736135 4.235339 1.2989436 0.7075376 0.3403622 0.98836154 4.707202 -3.7213027 0.36158562 -1.2491424 -1.5996603 1.5245566 0.77832246 1.0020944 -1.7640195 -0.035675246 -1.0138416 -1.7358937 -2.1818361 2.8007119 -0.7839853
english 0.21336852 4.7364054 -2.160412 -3.9918756 2.2571907 -4.8527374 -3.839744 0.83590746 2.9289312 -2.859151 -1.1128298 2.4758449 2.3400936 1.6316657 0.108995765 4.846797 -1.5068777 -1.7008085 2.1360288 0.028545666 -0.25924563 3.6047301 -1.5066898 -3.262085 5.1153717 -1.999912 -0.60324967 -0.6320893 -0.3887298 -3.5774138 -3.419753 -3.6032262 3.424697 3.8732617 0.17913839 -2.4621232 4.2665834 1.4420274 -1.1323452 0.49917027
better -4.938604 -0.04653329 1.0367159 -5.71121 5.3996353 1.364038 0.17871363 -2.7663748 -0.110411346 1.868308 -2.022191 -1.0460569 -2.1958263 0.51125777 4.3368287 1.967729 -0.4753941 0.9382265 -0.77349615 1.7006749 6.30231 3.208227 2.2101398 -2.9776878 1.4764844 1.0968443 -0.9905304 0.94783014 -1.100892 3.8281033 1.7200762 0.9671194 -1.2156658 0.22221729 4.822689 2.7903469 -3.0917354 -4.881364 1.3129183 -6.0364175
500 -5.2152123 -2.2176692 7.773716 2.2360673 0.23317145 2.603133 -0.062411666 -1.504656 -0.82239217 -3.1027012 4.836698 -8.4916 -0.17496842 6.3988366 -3.2335 3.1297057 0.5141324 -7.0587754 0.727108 -3.5670364 -4.914756 -0.896982 5.9460454 5.3023496 2.695462 1.3078552 3.5285614 -0.5517747 0.9389068 1.2497925 -4.4968266 -0.96969014 6.338317 7.0661473 -1.5518899 1.2073083 -2.1394932 6.2208595 9.768068 0.84198856
notes -3.4157712 5.42131 5.5142045 -0.85616505 -0.37838843 1.49082 -5.5081925 0.5064421 -0.8211702 -2.4895456 3.4402924 -0.85817283 0.8906103 2.2957852 -0.30569354 3.9347947 2.4306877 -2.8023372 4.484723 -3.6528761 -1.8995222 -4.7482295 -0.0065221223 3.3556151 2.0048993 1.3966643 3.5146465 -2.8937502 1.3020244 -5.166968 -2.3160121 6.456107 3.300497 4.587143 0.28065667 2.84015 1.9672614 4.343719 1.5345523 -4.41642
out -2.1506188 1.1101449 0.60220605 -0.2993463 -0.33225122 -0.19250844 1.2515072 3.7862742 -1.451851 -0.45597482 1.6741469 1.7501228 -1.2922484 -0.20027854 0.9093929 0.7677383 5.4220877 2.048004 -3.1632288 -2.9744577 0.80483425 0.52370226 -2.0956984 2.4125357 1.0837442 3.167044 -2.5680747 -0.6956245 -0.25527892 -0.99906075 0.4143456 -3.8531997 -1.1815488 1.0313553 -2.5278766 3.4816093 -0.50920814 -1.3424277 -1.7786229 -2.4183846
1000 -3.7623067 3.085388 0.071540274 1.0714483 -0.37577546 -2.0034473 -1.0560896 -1.8821818 -3.0791495 -7.4630837 4.875397 -1.9398936 -4.426143 3.6472254 -1.3246219 7.6438885 -0.30109918 -0.8195287 -2.8518746 -4.6719356 -0.5507821 -3.5171566 -3.852891 4.384946 4.9754257 -0.16159704 5.142491 5.238031 2.4884675 -3.83922 0.38789427 0.35912383 2.0460422 0.6776133 -3.7466578 2.6229362 4.3281803 0.26830637 5.3991942 -3.8608344
first -1.1771668 2.5005496 1.3304269 -1.749181 2.4881546 -0.62540054 -3.3935845 5.028012 1.2788918 1.0305926 0.60362625 -4.5000167 3.6529288 -0.38014877 -2.2030904 1.8754154 1.8120697 -0.57455975 -2.7475414 1.3597298 1.825717 -1.4998062 2.2592218 -0.9970546 -1.1685148 -0.65734196 -1.9684502 -2.451687 -1.7095066 3.0605009 -3.7547195 -3.2622068 -1.631717 -0.05722233 0.15655385 0.17491311 -0.6052444 -3.0596366 -3.7215133 -5.038072
other -2.6818767 0.8630201 1.674717 -0.83882034 1.5786983 5.107802 2.345377 -0.2860361 3.3989115 -1.3457098 3.2872808 1.2232077 0.5394283 0.8069065 0.06420222 0.7200805 -0.2560075 -1.071745 -2.136217 2.0703866 2.7722309 1.5658673 4.8847647 -2.4102464 4.0409455 0.39449146 -0.90655464 4.483591 0.57267 3.331767 0.15901278 -0.61549014 1.491214 1.1627141 0.40248203 -3.5847876 0.39210245 0.034787487 3.2181141 -5.3224797
year 0.08439596 0.25007078 6.1775413 -3.9167204 -0.4477605 -5.3023243 -0.72108984 -1.1262251 0.38177928 -4.118504 -0.34187043 -0.4450188 0.2276268 -1.488591 -3.9695122 -1.9539456 -0.50917405 -0.7846198 5.628712 1.8899534 3.2557473 1.0422548 -7.9021845 -0.6701763 -0.80346197 3.1432202 -2.3180623 -2.6856282 2.801718 -3.0245612 -2.703399 -2.276708 3.5762138 1.2198359 2.7497985 1.3768603 -2.3901775 0.36238208 0.27748957 -7.90788
want -2.4492948 -4.2104774 1.0141525 -3.9721165 0.64296293 -0.37012827 -1.4934292 -0.80666214 -0.2238469 -2.860328 -1.7467669 2.5830858 -0.39518407 0.7270599 -1.6496003 1.4299687 -1.2354717 -1.4081911 3.073955 0.10743666 4.2464604 -0.3767894 -2.9329572 2.0670452 3.855546 -0.38403976 -1.6637727 -0.7574918 -0.9317325 1.9385262 4.343341 -3.7412279 5.6067457 -0.16354765 0.9028546 2.7930133 1.8991991 -4.226292 -0.6818741 -2.3851352
but 4.411423 2.0024304 1.0492254 -3.4547846 -2.9551005 -0.3364561 -0.6473907 3.9981441 4.415818 0.041781515 3.2788994 0.5802313 3.0090516 2.977283 -1.8025191 0.24094775 2.2762716 -0.75996286 0.7324233 1.5816182 4.184973 0.0650133 -3.6215913 0.096010424 2.7079687 1.3303311 0.71236736 -1.5262095 0.17376271 -3.114664 1.9885668 -2.9587321 2.323804 -1.3071661 0.6406586 0.7105583 1.6088125 0.99226487 -4.5737953 -1.2756789
questions 6.5740147 4.9975004 -5.245335 -4.2329774 0.7602915 -3.2395887 0.049033888 0.8749514 2.359798 -5.724869 3.91129 4.816617 -0.97116494 5.8832226 4.5792437 -2.0429688 2.9807122 -1.699487 3.5688813 -0.17177588 -3.3314261 3.4352424 1.0173987 6.27757 2.4453917 1.67169 -2.181977 0.08254084 -0.09571044 0.6290565 1.3334379 -9.420897 1.8999563 7.179078 -1.3912665 1.1160197 1.7994004 -0.9810793 2.3179536 -5.178624
2016 -1.1128613 -0.09362492 0.9610446 1.6895025 1.7652525 -2.3246477 -4.0427694 3.387376 -1.2270296 0.569646 -0.102231435 -1.8550348 -0.1604784 3.5577486 -2.571381 1.6537881 1.0729274 1.2161801 -0.8157123 -0.21921071 0.36092606 -0.7836197 -3.6305926 1.5186247 -1.9237766 2.2225237 -2.8771222 1.8259038 2.6305802 -1.509331 -0.357865 -2.4795833 -0.1371855 4.174304 -0.60900503 0.3734304 -3.2533793 -1.9800661 1.8248795 0.27268606
could 1.1375575 -5.720681 1.8084445 -2.4451666 3.011912 1.8588555 -2.0116727 1.2636929 -3.943722 1.1990166 3.1973298 2.6506884 -3.337998 -2.5751293 2.3594723 0.6355383 2.7088616 0.23907527 4.8886895 0.5661695 1.1396785 0.9091736 1.5732471 1.7127912 3.6833231 0.9102713 -2.4378998 3.431223 -1.5674417 -0.83723205 -2.7140863 -1.3778352 4.961723 0.39733365 -3.2447116 2.3231444 0.23487411 -1.0733223 -3.6740525 -0.30049446
possible -3.8147304 -3.1431544 -3.618617 -1.45399 0.78344876 -2.240724 -2.6251774 2.082963 -1.5883309 -0.51948243 6.431672 1.6942574 -2.8909848 0.7688728 2.5195022 -1.2340158 -0.24606785 0.54919684 3.0140967 -0.32467517 7.4439573 -2.2190974 -2.252731 2.1718662 1.5448403 0.041029185 0.89885724 -0.3092019 -0.12503184 -2.7757032 -2.4624906 3.886448 2.4430325 0.65251374 6.5302267 1.4330587 -0.31143177 -2.6826122 -2.3067398 -2.7671928
job 4.2793794 3.7202766 -0.7223248 -2.0528274 3.8800714 -2.7421973 -1.539413 1.4374429 1.6958098 -6.0392327 -1.2173781 0.24888302 0.7229373 -0.74503535 -0.64045227 1.7522303 1.5221345 -0.02046351 0.09031674 1.7983232 6.498625 0.64091766 -1.4182534 0.6705602 1.0278878 3.1497557 -5.747973 -2.5011036 0.83207864 -1.5242541 -2.4927752 -6.4577613 -0.4712167 1.7179419 2.9651082 1.8766683 2.2811594 -0.82124794 0.46720037 -3.7199407
donald -0.11254151 -3.1730347 2.3086264 -0.25973117 2.7585077 -0.6381566 -4.743627 2.632856 2.6404958 -0.6744187 1.3950613 -0.9330195 0.24660793 0.037039198 1.1202832 -2.805955 0.59473693 -0.35972992 -0.04689963 -1.3282185 0.101571254 -4.9377975 -0.80182064 -2.9294927 4.4287157 5.685726 -1.0003824 -0.35488114 2.9898064 -0.2723392 -0.6467458 -0.48029265 -3.7002516 2.293365 -2.7475774 -0.2760122 -2.3209038 5.711582 0.18559639 -1.4477937
dont 1.2934915 -4.2826433 0.5173366 -3.1661863 0.7306663 4.6795673 -0.32712168 0.92906934 -0.102786146 0.098908916 1.8900787 2.3452528 -0.8502179 -0.6995859 -4.16554 2.2845883 -0.48923084 -0.26393563 2.0277212 -1.3596841 0.63715243 -1.1455107 2.6337912 -2.138877 2.8737454 2.5124135 -5.640007 0.33358386 -2.084017 1.228572 6.4218903 -3.1430564 2.5796134 2.9258544 -2.812405 0.61700034 3.6046858 -2.5994546 -1.8634835 -1.73896
love -2.1549907 -1.3227307 2.2693088 -3.9267116 1.1399462 -2.1875806 -1.3875319 -0.634413 2.6892524 -3.0536106 0.39366198 1.7146163 -2.4986064 3.115508 -4.317787 -0.9475026 -3.3152993 2.282343 -1.9958177 -3.0395162 1.2090628 1.0328853 0.36060452 -1.3278867 7.9305587 3.0508168 -0.8244966 -1.5910591 -3.6028144 -2.25559 -0.94632894 -7.377537 1.9780068 0.5932382 0.6723839 0.14024384 3.3773613 0.1259823 -3.4432175 -2.409521
weight -2.2149494 -1.0764395 -1.9338377 -4.466236 0.9431038 -1.4328214 -5.19841 4.94282 0.2820581 -6.076705 -0.024490483 -1.8794247 -7.4535723 4.152484 -2.1487958 2.2342184 -0.7801353 -5.0114827 0.5097232 0.3928589 -2.1466353 -1.4304233 -0.48722705 -3.0198991 5.2606325 8.159277 -0.22547053 -4.3222704 -2.6370497 -5.2868714 -2.2947385 -4.012404 2.2369297 0.91251993 1.5772573 -1.3286134 -0.04199954 -0.20857465 1.9735034 -1.4304501
mean -3.887047 1.6519711 2.2781916 1.9303796 -1.1343977 -1.095199 1.0343806 0.33024257 4.7996397 -3.8191385 -0.66275877 -0.11282878 -4.8411207 3.5867784 1.3509625 -4.2225842 -0.44810104 2.6783605 5.2399707 -0.95071995 2.7788486 -0.25653768 0.045402076 2.547834 0.5329114 -0.15479183 4.0077925 -4.361528 0.4227096 0.3670872 0.059292495 -2.9225614 -4.2735806 0.70320886 -1.6249325 0.53934383 3.8331444 0.10373746 -2.7957544 -0.13702658
up -3.1366322 0.6906875 0.56252253 -1.334391 0.3897763 0.7887021 1.506092 3.4839613 -1.0028778 -3.1819181 3.6338685 -0.36813766 0.69608617 -0.60110277 0.893987 2.002602 3.678689 0.70579255 -0.57418084 0.77113444 3.1565585 2.1047816 -3.3855002 2.1578844 2.6838648 -1.2810906 -2.3280096 -1.1101906 -0.3058113 -0.90649587 0.576532 -3.2232826 -0.2788732 -0.32280782 -3.1809876 1.714502 0.73726857 -1.8970432 -1.4547555 -4.015675
ways 4.0242205 -1.7833316 -5.895911 -0.41292027 1.2105247 -0.6433077 1.8145595 -1.5518751 -2.1742299 -3.7629583 -2.3132849 1.3070242 -1.2693502 0.7530169 -0.10100067 -0.10491363 -1.686046 -7.405834 0.642568 -1.8097883 -3.1411822 1.7160286 -5.3745008 7.152167 0.05359878 -2.3879943 0.71052295 -2.9022884 -2.2424634 -2.2446294 -2.0183866 2.7990212 6.980295 1.2265022 1.1776805 -4.2168136 -1.8569767 -2.4147527 -2.519525 -2.5834324
feel -0.8351652 2.314655 2.5766182 -1.6763779 -2.8627293 -2.3846896 1.077189 0.73375684 -1.2793512 -4.9976344 0.65702295 1.9931648 -4.1858706 2.8613944 -2.1487806 -3.2441714 -0.10848262 1.1245294 0.5130441 3.1587653 1.2806165 -1.2420489 -0.6537967 -1.4003754 5.600877 1.9315385 1.8430171 -1.4508177 -3.1964602 0.60312366 -0.6196695 -8.919408 -2.459009 3.2777817 -0.68480206 1.5855154 5.21914 0.63598347 0.015519211 -0.9202473
into -0.73108315 0.6646962 -2.2986321 0.7333309 2.0597866 1.9600393 2.8195004 2.582679 1.4323882 1.8917555 -2.1959143 -3.794388 -0.1736817 -5.096592 1.0435637 2.1861029 2.7393353 2.2858813 -2.4350195 0.58819777 2.0830996 2.4138355 -1.2364037 -0.5465382 -0.92564285 2.0559616 -0.9836447 -2.5144575 2.7295535 -4.413589 2.0268352 -3.8243427 0.7342338 -0.7034814 -2.0781982 2.1797516 0.17254308 0.19764088 -3.2133832 -1.6692975
improve -0.014332007 8.09603 -0.054637738 -4.1220527 1.7672298 -3.5335832 4.9881682 1.0417192 3.4718874 -2.0941455 -5.6821613 -5.1291738 1.2647655 3.1200178 1.5759301 0.20357461 -1.5093688 3.1785183 -0.2111696 -0.94752544 -4.038228 4.042836 -1.424588 -0.91446275 4.3701854 1.603785 3.2723897 0.81399775 1.9474261 1.0313737 -3.6893284 -1.864673 -3.477881 0.48946 2.1044962 1.3725102 2.940629 -4.301346 4.193841 1.7708948
take -4.2017093 3.0369887 -0.012460648 -1.6558039 -1.288294 0.22117962 -2.2871044 1.0461478 2.0154972 -2.2486498 -0.09516379 -0.04023772 -0.591284 -2.0430017 1.6366041 -1.4852529 -2.7899647 0.04812353 3.226083 3.3193054 2.1551955 -2.3483148 0.7224261 0.64555395 -1.8602281 2.1715198 1.2407238 -2.3575501 -2.5947902 -1.462975 0.756316 -4.6401134 -1.647921 -1.2184125 1.0819914 2.210085 -0.30234325 -3.2815185 4.442616 -0.71441436
day 2.373143 2.0753236 2.3744035 -0.3472373 2.6813672 -0.98681027 -2.1266243 0.3562776 -0.7402047 -5.112693 2.0839663 -4.084273 0.0329279 0.6339218 -3.1529567 -5.256289 -2.3090444 0.55563545 1.4936906 2.201507 -1.24584 -1.8884846 -3.0357227 -1.017483 0.45873106 2.724242 -0.4333136 -2.627501 -0.21131481 -0.019490516 -0.0065049655 -2.7414355 4.14236 -0.6009263 -1.4496316 -1.6920487 -3.0976434 -2.6501188 -1.1485386 -5.6862245
really 1.7187395 -0.4475702 1.1982417 -0.7488127 -1.2283286 1.0083604 -0.965278 0.0087862825 2.3833675 -0.2853324 0.7072078 0.34102768 -0.35996684 0.12440321 -0.27127606 0.43645853 1.2156109 1.0506046 -1.7062325 0.22478677 1.3163741 -1.9567239 -0.34172738 -0.6943805 1.5347624 2.5403662 -0.14454246 -1.8892376 -2.5469286 -0.13539422 1.3856225 -1.5166482 0.70722437 0.21031556 -0.85385144 -0.30471787 0.05278387 2.5475576 -0.57115585 -0.19123057
phone 2.5950859 0.01747053 2.4311678 -4.354613 5.3171844 -1.2153248 3.1792054 3.190192 0.7363879 -1.9405946 7.1368275 2.3098218 -1.497991 3.393391 -1.850755 1.4306657 -1.4487171 -4.462368 -1.4881927 -1.940878 2.8753867 3.411529 1.6183938 2.610381 0.44058716 1.4758041 -1.2871529 -4.868963 3.505822 -3.3227427 -0.31302962 -3.6835186 -1.2566854 -1.5981529 0.99764144 0.31925446 3.7162416 0.5385373 1.0736034 -2.683032
things 6.1071706 -0.80554533 2.763783 -4.0204706 -0.6600342 -0.83219254 -1.9852464 0.11832838 -1.4278176 -5.331937 -1.7355738 -1.0694064 -1.4803777 4.9097323 0.8774933 -4.0566754 -0.19838338 -3.7713149 -3.0134606 2.2641897 -4.2119694 -1.097839 -2.1486928 6.0046062 2.2833064 -0.40610802 -0.7333376 -4.3511877 -0.36542273 -0.44271985 0.461591 -5.713746 4.805035 4.762984 -1.3570447 -0.7026055 1.0865046 0.05413391 -2.7031145 -4.305436
he -0.097014904 0.87698776 3.3958256 -2.255616 -3.0424454 -2.1324627 -1.6010007 1.6473454 0.42377958 -2.2397902 6.0373497 -2.5780866 4.6093283 4.280791 0.19191016 -0.24865198 0.85535586 -4.0446305 -0.014089112 0.795489 5.5779996 1.8161124 0.8404021 -0.9044082 2.8814354 3.8004003 2.6472435 -2.6675553 -1.8656781 -1.1276324 1.0718523 -3.9940052 -0.5465452 2.701823 -2.9779882 -0.08492103 -3.8410616 0.946452 -6.459777 -1.7029539
were -2.786048 1.6587504 4.0388126 0.74113375 -1.0584304 -1.1572015 -0.47825107 1.0943631 -1.7084135 -3.0785265 -2.039521 1.5370078 -4.265199 -2.2449448 -2.3540013 -3.2975223 0.7837983 -0.29933676 0.99902755 1.8363097 -0.8463265 -0.40854323 4.533117 4.584924 -0.045576893 -2.3039114 1.7170663 6.838001 1.732981 -0.6267902 -0.08950403 -5.270038 -1.3803321 -0.090047605 -6.229669 -0.11747731 -0.16585216 1.510222 -2.8445928 -2.6367233
account 1.2891651 3.7134378 -0.21578024 -3.1510096 3.987723 -3.423973 1.4993646 3.9448667 0.8778048 -4.650685 4.635513 0.16603842 1.0085582 -1.0745881 -5.7467804 2.3404782 -0.34708744 -3.5416079 2.3790033 -2.7145352 5.117415 0.9323901 3.8809085 4.3712606 0.3335064 0.18096335 1.4628413 -3.1415553 4.0181494 -1.7284749 2.2139225 -2.1329875 4.142306 -1.909641 0.79245025 4.23335 -0.42889842 0.21070264 0.73412836 -3.1890059
go -4.687671 2.6165154 2.192729 -2.9126909 -2.9384482 -0.9071176 -0.023545265 3.054006 -2.0749338 -4.505497 0.9977185 1.8778126 1.7188666 3.6790082 -1.312133 -0.98443305 -1.5465454 1.4983088 -0.21295743 3.8400457 0.829851 -1.5224661 1.0257529 1.321552 -0.22368623 0.31868988 2.479447 -0.6701445 -0.44086316 0.33918598 0.09141327 -7.0877957 -0.35853416 0.487731 3.5542061 0.44107446 1.1075766 -1.2456548 2.9865973 1.1192966
its -0.527053 -0.7718872 1.1710635 1.982417 -2.501223 2.0181775 -0.5674386 -0.10122159 -1.5877011 -1.7221488 5.661385 -1.5587264 0.5063705 0.21100366 -0.22972058 0.46424967 0.63956434 -0.36302328 -0.014324761 0.61890817 1.8849894 2.2269423 1.0320332 -0.8417805 0.14652744 -1.7570647 1.0446608 0.18769449 1.5273325 -0.7845694 1.7552822 -0.48403046 -0.29692596 1.1856968 -0.46557522 0.00422999 0.9232616 0.5602168 0.35707596 -0.08648999
engineering 3.0994368 -0.7525295 1.4803041 -3.8533883 1.871982 -2.9616725 -2.1619008 0.9633802 0.97129864 -3.7466908 -4.8455777 -1.818392 1.5687932 1.6135238 -2.6399665 2.1116714 3.4150681 -0.73820364 -2.2740307 0.19460955 4.230766 2.6561992 -0.84275097 -3.547041 0.8178094 1.9042355 -5.7876115 3.6012597 5.260123 -1.62617 -2.7907908 -5.68414 1.6365896 1.7039955 4.9890733 -0.9160876 3.2266653 -2.4020526 1.7260251 0.47995737
lose 0.19935016 -0.7291437 -1.210983 -4.375174 -1.0120648 -2.8734934 -1.9665415 4.25685 1.9908667 -3.1791148 -2.4209034 -6.410043 -2.1660745 2.9554527 -3.8128989 -1.2949147 -5.460964 -0.6068213 2.492806 0.73180634 0.06289737 1.6209164 1.0518473 0.24282342 4.882123 3.0230005 4.791091 -2.9510207 0.10158009 -3.342084 0.30328265 -2.6056623 -0.3671902 -3.087266 -0.97226477 -1.3936592 -1.1656164 0.37722626 2.2077353 1.428163
buy -2.7610214 2.7041235 3.3872414 -5.354449 2.5383 -0.50268215 1.0731542 4.9174347 -1.8269261 -4.609068 -3.9365118 -0.23000035 2.5371609 6.4716187 0.18572496 0.3368544 -5.114769 1.6518098 -1.0825582 1.0214787 -0.6644912 -1.8591689 1.0346798 1.3387005 -3.4858284 -0.14318916 4.5220656 -1.664024 0.38917685 0.31017867 4.331364 -3.1170535 -1.2611727 -4.652976 4.463148 0.41630685 -0.76576024 -0.45710608 3.7805102 2.3233058
2 -1.6488987 -0.39964858 1.7004192 -0.24421862 -2.510577 -1.168181 -1.2848305 4.271287 -0.08463593 -1.3231168 1.0872667 -0.40589583 -0.49005607 1.9782256 0.21580116 1.7672983 0.8915835 -0.45561823 0.4346116 -2.654775 2.317608 2.3602645 -1.2904271 -3.217243 -2.241185 0.5707601 -1.561218 1.5650555 0.07368119 0.20495465 0.30055535 -2.3550255 1.645848 -1.4160559 -0.9389522 -1.574283 1.2393881 -1.8155719 1.2876022 -2.1483803
long 0.13441503 1.6402249 0.4799695 2.1015146 -0.5535975 -3.9304368 0.51350456 6.3657117 -1.5455248 -4.8138304 3.4036524 -2.5305655 2.1274664 0.16614118 2.4665196 -4.79069 0.72742254 0.21443073 -2.1893897 -0.9219743 5.4684486 -0.83878857 -7.251148 -3.587169 2.9070506 1.5919797 -0.25492352 -1.3666117 -0.017606322 0.17864348 -2.436979 1.4780701 -0.22882296 0.4764752 -1.4966586 -1.5449195 2.120461 -4.4506035 0.57297236 2.4481452
google 0.22693336 3.0946527 -1.3196799 0.92583436 2.9035437 -0.21964371 0.30506748 3.1251 2.3165565 -2.0981364 5.932379 1.8234298 -0.7085231 3.8234153 2.8204143 1.40901 2.306597 -3.1937768 0.011927481 1.6452276 4.4644556 -0.037777353 2.2791235 1.6045691 1.358419 -1.8155918 -5.3438826 -2.4927137 4.054275 0.8951013 0.7465579 -7.7000217 2.43183 2.491416 -0.26374385 -0.86899394 -0.2571169 -0.6355206 1.1886122 0.09288713
books 2.9606118 -0.34850603 1.6347466 -2.6764233 2.8654149 -4.9019737 -0.08304133 -1.2770889 3.347633 -3.5443232 -2.6286461 1.6939512 0.10989418 3.440876 2.5123558 -0.40494007 -0.34459567 -5.063245 -0.9343059 3.9410663 -5.6877975 1.3270539 -0.09410677 2.3073628 -0.48720962 -0.8219438 0.21493055 1.1383152 0.22284265 -1.1947863 -1.095394 -0.07811461 4.021388 3.7928169 0.31491187 -3.5897434 -1.975178 -4.5039787 -0.2711835 -3.0886354
stop -3.0350535 6.1293826 1.3747748 -0.8150273 -1.7860198 -1.6531203 4.3242064 1.5307661 -0.5378514 0.31153157 -3.9150221 -4.3453937 -1.3672744 2.1749535 -1.4288011 -0.018986361 -1.8749359 1.6539372 -1.3456548 1.321429 1.0574306 1.1249282 1.8653415 2.429631 6.55402 4.4502754 2.0080976 -3.3579252 -0.9302776 0.42264384 1.358957 -1.2954171 -2.953993 1.4552711 -0.6750054 0.18582532 3.6937973 -1.5214726 3.5141764 -0.6162415
black -3.608645 2.4300807 -1.4194227 2.8705213 0.032036833 4.557889 -1.2754322 -0.045592356 -2.5597482 -2.1310298 2.478361 -2.2153 1.7165577 3.3283184 -0.4637311 1.8866045 -0.9402496 -0.9070012 0.31504163 -6.039387 -0.57536477 -1.7463107 -0.03847065 1.3890175 4.687219 3.1358125 4.5739293 -1.26101 -1.2039783 -2.9534965 -0.014407904 1.6213048 4.8836865 1.6782297 -1.4533293 -1.2974797 -0.25772345 5.521038 -3.4743147 3.6261837
person 2.1921623 0.89776975 -0.40333828 -3.4913368 0.14761095 -2.7697425 0.23371343 -0.99247134 -0.90977806 -4.5848413 3.8672962 2.151453 -1.0984097 0.25339913 0.5153138 -2.2995079 -1.1749947 -1.2266539 1.1464838 -0.19847354 3.0592082 0.66099876 2.3364983 -0.3548221 3.3891528 1.8697429 1.4300089 -3.1762962 -0.003731483 -1.7163444 -1.7479063 -3.8479068 -0.362156 1.1109773 -0.08117756 0.40021476 -2.652863 1.3367374 -4.2252145 -3.8826456
number 1.9320946 -2.1225293 0.17961718 -0.4025623 2.9854386 -2.241468 0.72319853 3.3398762 2.1306722 -3.3056304 4.7701497 3.4172337 0.64743954 1.9767781 -2.4785273 0.7013654 0.5875822 -0.9772127 1.4631076 -5.494868 0.75851065 1.3150201 3.2568905 1.971939 -0.958282 2.9718075 -0.97968245 -2.1631794 4.8775516 1.2634797 0.00034526613 -1.428172 1.4535824 -2.0993915 0.8919123 -1.7137638 0.92635167 0.3839396 0.45145547 -5.5205817
language 1.0473832 2.016266 -1.5365368 -7.871743 3.3253677 -3.1966326 -1.5714775 -2.53806 2.20392 -4.7365856 1.1194497 0.36361966 -1.2747885 -0.58260655 2.6561763 1.1993752 -1.9076864 0.59670955 -0.7351087 2.124469 1.0116669 4.9060116 -0.3530876 -0.32480985 -0.94000363 -2.5714881 0.5686092 -1.9240292 0.25316426 -2.5318367 0.953227 -2.5490625 3.668601 2.6037436 -1.9034915 -2.8558054 3.8214521 -0.57552737 -0.7758018 -1.4562334
war -3.9056811 -0.54080725 0.086687945 -5.9578915 1.4645978 -4.874872 -7.79086 3.3663633 -2.3025599 -6.144375 5.0820346 0.92116094 0.8176771 -4.984442 0.5388556 -1.2554666 -0.9984664 2.2516801 -5.0305343 -1.3139853 4.842233 3.5492144 -1.4483804 0.24078639 2.1519263 3.4138033 -0.036455292 4.809021 3.1876693 -3.952717 -3.0635037 -3.338058 0.05992598 -0.07631735 -5.7153335 -5.151364 2.600788 4.8254495 1.8976713 -7.7609262
being 2.7889738 0.4217992 1.1065714 -0.83747035 -2.7729225 -2.6437397 0.7872063 0.10176259 -1.1046438 -1.5661774 1.0911738 1.4548504 0.4586688 1.4380981 -1.7046932 -0.23778893 1.7644503 -2.6605186 0.7850692 2.8651059 1.8602458 -0.9735824 -0.13534398 1.2756679 3.7123766 0.39811656 1.2884644 0.9598639 0.7004388 -0.0459071 -3.3984122 -2.5106156 -1.5290849 0.07844508 0.16657275 -2.2428656 1.590864 3.6642668 -1.4017482 -1.1089537
used -3.0941155 -2.4272132 -2.3535757 -1.1131765 2.8077068 1.8362197 -1.5343987 -0.23580551 0.13791671 0.112211935 2.3009748 0.1534474 1.0518794 2.8462236 5.006381 -1.2010385 -0.056568265 0.81153005 3.1867015 -1.5343248 1.9009367 -0.6530956 2.316892 0.46917155 0.9261276 -4.239477 -0.5572934 0.46511525 0.26941162 -1.2076198 -0.11745552 0.9643774 0.7159389 0.74591607 3.2419565 0.6070672 2.055418 -2.2425172 0.4998499 -0.95629054
old 0.20987816 -2.535302 -0.05703949 -1.0676049 -1.4489747 -1.3214971 4.182553 4.0695677 -1.089862 -0.26804742 -1.7582531 -3.772649 1.2102245 2.6521125 -3.7518747 6.5060825 -3.401393 -2.3596427 -1.9747127 -4.244359 3.7646165 -2.0441313 -2.1455147 -4.00713 -0.99289 -0.9629401 0.88475263 -0.3277452 -2.3981612 -1.0628784 -1.6082475 -1.1877859 2.6201963 -0.40993282 -0.94797325 -0.48115805 1.1268574 -2.628855 -1.498308 -1.9123976
question 4.12075 3.0208611 -3.3252902 -6.1145387 1.6437256 -6.6719947 -0.8840931 -0.12960635 2.3904362 -6.1580715 7.052704 1.4004699 -1.5224367 3.1581407 0.44050035 -0.06306328 0.81687367 1.0450004 3.4363132 -0.43680406 1.0816703 1.8916005 1.4471779 4.440179 1.274284 2.4182272 -0.12974751 -2.087444 -1.0983839 0.79393315 0.492516 -7.225637 -0.14071016 2.3557928 -2.911849 2.4179194 -1.3298723 -2.0651288 0.90644217 -2.5314317
sex 2.9628778 1.1782467 0.16413228 -2.3349824 -0.2626713 -4.918737 -3.6221342 4.587425 0.9781729 -4.992777 2.9516685 3.2060924 -1.3718796 1.7059546 -3.120505 -2.2197473 -0.53453296 -2.9777565 -2.0784128 -0.26872164 3.344317 2.0641563 -2.8192902 -4.964991 4.9152594 -0.93976206 0.0788278 -0.13565287 -4.3292623 1.3101951 -1.907008 -5.3689294 -5.12988 0.24201426 1.984498 1.3325704 3.6548905 -0.36347735 -1.9252024 -3.3674858
girl 1.726904 0.20910484 0.84081787 -8.478963 -0.37884414 -2.2972085 0.891377 0.9510862 -2.6349468 -5.302564 2.4242258 3.2348025 0.1963894 3.124415 -2.789382 0.3727634 -3.809073 -0.13467428 1.703044 -1.3987315 4.2924504 2.8912082 0.8876631 -3.4108388 3.7433486 2.8486779 -0.356306 -6.190139 -1.5602987 -1.5473742 -1.5328455 -6.7966456 -3.5005095 2.8193872 0.5192828 -0.3165798 -0.3223478 -0.08978571 -4.2323456 -5.8099785
them -0.9717564 -1.0167434 0.4689472 -2.0059118 -1.1775224 2.0585778 -0.07726626 3.4640121 0.964667 -2.4797564 5.290577 4.14195 0.7388749 2.2107472 -1.1980689 1.0150874 2.6242146 -3.9036202 -1.9412688 0.8650941 0.9984169 -1.1380266 2.8997529 0.81421006 4.818303 -0.66455585 -1.8073393 -0.07588903 0.14618565 -1.101345 0.4009542 -3.006101 2.4787183 2.1918662 -1.1804593 -0.8691087 -0.28369653 -0.47131044 -1.1775467 -3.5387373
thing 5.5621133 -0.6837694 4.129197 -5.1285057 1.1617903 -6.0712028 -2.1620424 -3.2428596 0.14402752 -6.246514 1.7320391 -0.5814941 -4.2125735 4.5485773 -1.6189283 -4.845709 -2.176319 -1.9865934 -3.2664073 0.114311114 1.0529116 -1.6812295 -2.720155 7.2883782 -0.8706036 -0.094777785 3.9790466 -3.30273 -4.3093843 -0.12159141 0.39131 -6.173529 2.3390093 0.2662523 -0.78265154 2.400595 1.0307394 -1.2314312 -2.573122 -0.51437175
book 0.63471925 -0.051535685 1.1026924 -3.6879504 4.262033 -5.55242 -1.1815383 -2.3951678 1.9591639 -3.34366 0.51716346 2.8439655 -0.752578 2.8239427 1.9624125 0.9836791 0.046654597 -1.2967163 0.53972995 2.8941805 -1.3792156 1.5743599 0.5263581 1.9998423 -2.2587595 -0.33101115 1.4012692 -0.69764674 -1.2913778 -0.8556727 -0.6663697 -0.09529041 2.0258274 1.3728106 0.020321427 -1.9696501 -2.5946507 -5.327225 -0.9063631 -0.18839923
im 0.8067638 3.7887447 2.9726882 -5.07637 -6.3321795 -1.360108 3.3284414 -0.3885181 -4.699489 -2.3917758 -2.321818 -1.6439102 0.6382369 2.9489071 -4.3408504 2.711493 0.09078862 -3.0205908 4.034637 0.21167254 3.870783 2.6606152 -0.62542427 -2.157658 2.0598767 2.7392678 -2.9321783 -2.597081 1.7897961 -1.7144215 2.8841574 -2.8923285 0.49251127 3.409942 0.8344112 -0.61210257 1.3694954 -0.47734633 -3.6491165 -1.1501254
programming -0.4646026 1.3708931 -0.068122 -5.564883 -0.7826804 -3.707532 -4.5461144 -0.2690728 2.3759532 -5.7613153 0.59312654 -0.36681265 -2.67282 2.1413054 -0.31001 3.7745767 -0.37747794 -2.6760652 -1.4133468 1.2533103 0.41564542 1.7586652 -0.82198846 -1.3619585 2.006982 -2.9828322 -5.3809743 -1.1906029 3.44471 -0.45766535 0.6121627 -5.2836256 3.2680893 0.08460685 0.9185884 -3.85288 2.4627576 -1.9534587 0.009126456 0.08399643
movie -2.0281234 3.3178356 2.8681843 0.17286953 3.0880778 -5.8456717 -0.3065946 -2.064204 -2.7723029 -1.6222001 2.7282066 2.4894867 -2.2059784 2.5294733 1.2548188 1.6841509 -1.332443 0.7686473 -2.9340506 -0.7597439 -0.38368678 0.98252773 -0.3434144 3.2202833 -1.1630203 -2.4179251 -1.1496111 2.0502222 -4.4308376 -1.5773684 0.33423674 -4.721444 1.9360367 1.7104194 -3.6798022 0.33020413 -3.0941658 0.3572374 -0.80179507 -2.3766625
business 0.35492244 -0.72364616 1.6143997 -3.2248614 2.0185723 -0.95487356 -0.14841194 -0.27955303 -0.12014531 -8.370477 -1.6836301 -0.006711188 1.617157 -1.3899448 1.040948 2.840224 1.1704323 -0.8371937 0.4120585 -0.9372062 1.8742523 -1.2073929 -1.3849282 1.8212769 0.93317366 -1.6062473 -3.0457196 -2.1559258 1.4737562 -2.428174 0.0747668 -2.6553288 1.466681 -0.104137674 0.95431787 2.7531357 -0.726891 1.5684226 1.961331 -1.2621859
using -1.0453548 -0.48085278 -0.63877916 -1.208092 0.91781056 -0.21649715 3.3011303 2.2534647 1.9614464 0.68531835 2.8286848 1.5636554 1.0068136 -0.20826629 4.181869 1.5034372 1.5116079 -1.0123509 1.8789904 0.023555627 0.1412733 -0.1934459 0.48399386 1.008869 0.463899 -1.8874747 -0.43068755 -0.939184 0.6004921 -1.3040562 -0.4004689 0.72447556 0.36726877 -3.025284 1.4095192 -0.3440722 2.2117038 1.2229445 1.6528143 -0.8128475
compare -7.0767555 7.0655684 -2.6775098 1.5659657 5.292824 -1.9445318 -3.610413 4.220958 2.2524529 -7.0217547 -8.343523 3.9532762 -7.878311 2.0014923 -4.476809 -8.57821 2.4051418 9.334666 0.40981045 -9.681051 0.5397173 -0.24354461 1.0089538 3.2392569 -1.6599587 -5.325669 13.189382 -2.3064723 7.7733374 3.827518 -2.1790333 0.25744268 3.1637948 5.8398337 2.1621885 5.112505 3.4239182 -4.115604 6.008007 5.0499544
need -1.0868336 -2.668401 0.3744995 -1.6580224 0.12401858 0.89287746 -1.1822509 -0.94616073 0.2708594 -2.0578258 -2.135195 1.3290012 0.052281138 -0.43483588 0.7574898 -1.6858574 0.34927604 0.48349744 4.6026516 0.2158911 2.6878793 -0.06466622 -1.6003802 2.021893 3.381926 -1.0262413 -0.946975 -1.6504377 0.087094784 3.4742737 4.2627616 -0.59326804 3.888891 -1.8294495 0.096850894 1.1209551 1.0546314 -3.3719425 2.3925157 -1.4631412
his -1.7400408 -2.2229846 5.291523 5.393858 -2.8304145 0.26096946 -0.06035102 -0.75990367 -1.3854042 -0.5788073 4.031666 -0.86060613 4.803169 2.273848 0.5009529 0.23237622 -1.8531659 -3.2538948 1.7090898 0.6642861 2.9290624 0.17016898 -1.2357857 -0.97723436 5.216748 1.3936409 2.5610316 -0.11737828 0.4952022 0.70856 -0.5927798 -1.1093951 -2.5795016 0.6568385 -1.9806426 0.21414648 -2.933168 -3.2333682 -3.625459 -2.0784247
her -0.3876579 -1.3981116 3.2959816 -1.8413295 -3.4368606 -0.121248834 0.6528812 1.8752527 -0.82091403 -2.75481 5.385936 1.7182328 4.008905 3.4104865 -2.3328469 1.1703272 -1.1004018 -4.2327037 -0.58728355 0.9912551 3.104934 2.9202151 -2.1251814 -1.2759601 5.376044 3.5242581 1.5567364 -2.5987027 -0.58511186 -0.28102535 -0.6983206 -4.736675 -3.1574543 2.1058352 -0.8638453 -0.26685315 -0.7300769 -4.044534 -4.259805 -4.0231357
facebook 0.7362358 2.8186417 0.67936796 0.7736168 2.3004782 -1.4367554 0.8695302 1.6356587 3.714821 -2.0094736 4.880375 1.3945422 -0.92446065 2.788866 -3.0005124 2.7191505 -1.6926855 -4.971891 1.238225 -1.6124703 3.4164708 0.48235905 2.5327046 1.4698582 6.930555 -0.6192057 -4.4738784 -3.8644588 3.2786672 0.9238759 -0.9338597 -5.56121 0.38655323 0.5879234 -0.7221842 -0.5846294 -0.84671396 3.4618378 -0.5740017 0.018567361
been 4.7318096 4.6249223 3.1138957 -1.7059628 -1.3743128 -3.3108535 -3.9119875 5.3045006 -0.50821346 0.5128061 2.0334246 0.68557036 -0.81170833 3.2996478 -1.7078947 0.09762479 1.6721325 -4.2394977 -2.0104234 -2.0148907 4.145747 1.4003696 3.298746 1.3334155 0.007480351 0.75679106 3.3603187 2.9697502 0.57679445 -1.0257976 -3.032332 -1.7659525 -1.1894735 1.9854017 -1.3491185 2.6121607 1.7694334 -1.2984095 -4.4015718 -0.12961604
president 0.96034837 -3.374272 -0.07208034 -3.3942914 4.031796 -2.2866273 -4.490575 -1.3773053 -4.221936 -2.2010467 1.4219999 -2.0832043 1.1887834 -0.8450979 4.197062 -2.6727884 2.001712 -2.5694625 -0.7248656 2.3105476 1.402567 -1.0319949 -1.6600434 0.9969383 -1.3848649 8.022585 2.4316866 0.90523034 2.1840172 -1.2830548 -4.5657706 -8.671595 -1.6306813 5.3810935 -3.1863048 -0.106635004 -2.0725605 3.748912 -2.8309324 -4.521978
3 -0.3860752 0.015543189 1.9888151 -0.53903204 -2.2652304 -0.26941985 -1.5240738 4.484168 -0.7333367 -1.5445026 1.5189171 -1.0656524 -0.74196047 2.6092546 0.5410374 1.3676903 -0.55515087 -0.35472164 0.030282814 -2.3864057 2.2602265 2.6665747 -1.2758764 -3.5362778 -1.072308 1.0874108 -1.7130623 1.8034619 0.30394557 -0.3070199 -0.2928591 -2.244445 0.43185008 -1.048955 -0.81851786 -1.5083472 0.15877531 -1.8366677 1.6161859 -2.0574687
free -1.3390844 -0.26580858 -1.3144062 0.18349172 3.1058974 -0.8058553 0.09597337 2.7367256 0.86397505 -1.1863621 0.040703405 2.7038784 1.0976031 0.32867512 3.5716488 2.6475883 -1.0613593 0.7548473 -1.1714522 -0.039022543 2.2635558 -0.13101351 -0.08018706 0.8485791 1.0976788 1.0414611 -2.3118734 0.28173617 -0.1017894 0.012465215 1.0259353 3.0987282 -0.14541937 -0.35585144 0.97405094 -1.8863441 -0.9579129 -1.6351258 3.576917 0.04455375
now 0.81964386 1.082424 4.375624 -0.8010325 -2.424736 -1.9396653 -1.8230932 1.3974953 1.4643191 -1.2836313 1.3121808 -2.4768124 1.1561723 2.6850884 -0.54938835 1.5712354 -0.40947598 -3.0546234 -0.6812836 -0.5156049 2.3648713 0.22838312 -2.8471692 1.2829117 -0.51018435 4.5672145 -0.67594355 -0.009739818 -0.8599526 -0.49546176 1.9426309 -3.1725075 1.3182116 1.9674331 -1.4258285 1.2962065 2.0670025 -0.42481664 -1.0267762 -1.484254
1 -0.044656835 0.13135059 0.9932762 0.31399846 -1.8389764 -1.6268702 -3.5581715 3.4551182 -0.65205634 -2.2134976 1.6229845 -1.657913 -1.1799477 1.8368642 0.78938085 2.5752778 0.64724153 0.24576968 2.2180672 -2.0232522 1.1296526 -0.50557446 0.37867305 -2.3530738 -2.2513235 -0.2750349 -0.28881985 -0.03454189 0.27017352 -0.7562583 0.122266665 -1.4894227 1.9687622 -1.1781077 -0.28132832 0.91309977 -1.42318 0.09005913 1.5153217 -2.681229
years 0.26926786 2.6974318 8.77143 -2.4291484 -2.726042 -4.3851743 -2.5736072 -0.11507098 -0.83165234 -0.66335917 2.1487243 -0.05092652 -1.5912532 -1.1752206 -1.8819953 -3.0747514 -0.9243107 -2.7847385 3.7187762 1.474515 2.9391239 -0.7456077 -4.7350316 -0.8623794 -0.4099062 3.094923 -3.139627 0.69422626 2.473038 -5.008087 -3.4998207 -2.4646912 4.1659036 1.4530114 4.5648437 3.4441206 0.10736749 2.5326762 0.7806804 -8.957077
happen -7.269731 2.7603874 2.4756293 -0.018570427 -1.4994425 -3.360948 -0.40301004 2.6556814 -1.5132554 -5.620252 0.14177088 -7.309488 -0.010019869 1.2173891 1.7650473 -6.801393 -1.0434202 -3.0505059 -2.4806209 0.154246 2.0684876 0.5740751 2.7545373 6.6191015 -1.1886925 2.1449392 5.318286 0.45608875 1.5272249 -0.26006085 2.7464063 -3.534484 -1.3569397 -1.7721672 -0.6762506 -0.11843323 -1.3276342 2.1570673 -2.6565907 -1.443676
see -1.9185815 4.4708743 1.180825 0.26069 0.7213402 -1.6891545 3.840007 4.373654 3.9394162 -0.32218543 -0.31920207 -0.46087056 -0.90195805 3.03036 -0.7107332 -2.8989432 -4.061937 3.2021723 1.1221685 -0.44035947 0.39938405 2.849952 3.8924866 3.1557596 4.004537 2.0830977 0.40864548 -1.0832291 0.55117106 -0.91788423 2.1798747 -6.867256 -3.1639314 -1.8332852 -0.36056265 0.20720668 1.6101646 4.5830264 -0.5513791 -0.4372996
different -3.112428 1.0305915 0.68272156 1.7089454 1.8162905 1.981738 0.49877894 0.659236 2.0903614 0.18260722 0.5332164 -0.8378849 -0.5071457 0.889302 -0.09832443 -0.45569262 -0.7960599 0.8331059 -2.7454712 -1.293521 3.0512743 -0.13845928 4.8958287 -3.4576015 2.2078114 -2.600819 -0.53351617 2.3451788 1.2669858 1.6887571 -1.348826 0.8968518 0.19031842 0.5561311 3.5504766 -1.4551709 2.9744043 -0.6447571 2.6917763 -4.5459933
movies 1.3015456 3.282045 2.3861704 -0.06681077 2.6517587 -4.228876 -0.7687107 1.6524595 -2.133251 -2.314497 1.2766393 4.150051 -1.1291674 3.8833003 2.9562054 1.0289112 -1.8956362 -2.0574765 -2.9309635 1.7257664 -4.340199 1.1052766 -1.321899 3.266676 1.087994 -1.5163109 -0.687336 2.959825 -3.2159445 -3.434863 -1.1464132 -2.4272416 1.7893567 4.1875567 -1.5607382 -1.1601975 -0.90140754 1.3213859 -0.67133874 -4.545607
help -3.2515213 1.5499849 -0.6790763 -1.9496642 -0.91777515 0.7616425 1.944487 0.4013822 4.1184545 -2.7589068 -3.0775912 0.11640229 0.63935757 -0.12957703 2.0569701 0.66982263 -1.3860477 1.3559211 -0.28105295 -1.8785232 0.2877336 -1.4176998 0.28195152 0.41332012 1.7991239 4.5559855 1.7691642 -2.0263436 -0.7048903 -3.9022884 0.79900616 0.22045603 -1.2185991 1.3077116 1.744282 1.9724458 -1.1254015 -1.9998363 0.44678375 2.6033177
just -0.25649127 1.8370745 2.4513373 -2.8141723 -1.0401076 0.664596 0.7704487 2.149932 1.7294717 0.73423505 2.2411702 -0.2015879 0.72406775 1.925718 0.13304397 0.78971577 2.286376 -0.8763533 0.39317292 0.6652258 3.9615536 -1.9046904 0.7238041 -0.30708936 2.1143715 1.5092857 -0.47375774 -0.16998854 -0.94002026 -0.45075014 0.30600604 -3.0589154 1.6472799 -0.86443985 -0.6386409 0.82102203 0.20635739 -0.24072199 -2.954758 -2.420808
under -0.8022908 -0.7314658 1.7123874 -0.21114135 0.89844877 4.5545726 -0.15293008 0.06547923 0.6955446 0.4063934 -0.90385246 -1.7001091 -0.20743395 0.65573627 0.9324609 2.647938 -0.13178661 -2.2701516 -0.13599642 -3.2473087 -3.3990562 3.216462 -3.8603299 2.2544725 -3.907179 3.7260537 2.468483 0.82201874 -0.019593967 -3.5687408 1.0872501 -1.8225938 -0.024209898 -0.84602636 1.0738581 2.6924517 -0.6390457 0.22190951 -0.925349 -1.2474188
hillary -3.9059637 -4.8050427 -2.8231907 -5.938905 0.22413011 0.09591489 0.20465125 -0.44524705 0.6773937 -0.9817021 5.649266 -2.8971593 1.699792 1.2607749 1.231381 0.06246622 1.6515304 -6.0467973 -3.5263524 1.6857542 0.32308 1.707301 -0.08759364 -0.8663773 0.529168 1.1261452 4.990738 1.2166966 3.749649 1.7637047 -1.0772074 -5.232947 -3.5555544 6.250403 -2.664241 -1.206131 -0.19006732 -0.7367498 -1.436749 0.15233156
had 0.8939518 -1.493689 5.7509933 -1.3086076 -0.51342446 -1.8042258 -1.2041048 -0.14014456 0.2669339 -2.1232522 -0.21358576 0.56567454 -1.0054805 -1.6850706 -1.5640386 -4.463756 -2.6208014 -1.4533958 3.3452742 -1.8236384 2.0956295 1.9104143 1.9819806 1.9413302 -0.30913782 -0.9548842 2.6900613 3.5025163 -3.1672213 -3.1949751 2.0406487 -4.273179 0.6876734 -2.4488227 -2.8207233 4.2501726 -0.79656655 -0.8748175 -3.9033492 -1.6144186
still -0.3603535 1.7047207 1.4735665 -0.8980272 -1.5014535 1.4842082 -0.7598834 1.7103869 2.117174 2.096516 1.1031756 -0.60117346 0.3304113 0.5584738 0.02987247 0.7843141 2.0468526 -2.1168602 -1.070029 -2.0055933 3.660549 1.4665946 -0.0056218943 0.7442015 1.9674582 2.5465004 -1.3945887 0.6629757 -0.71465594 1.0538495 1.6929244 -2.0267437 1.6098903 0.80191684 -2.0730793 0.3114434 0.7010416 2.4039683 -0.97523326 -1.5964117
rs -2.2856755 0.29492792 4.0396023 -1.5238264 2.7367702 1.1183716 -3.3876433 1.0742441 -2.272597 -5.38515 2.846227 -2.5558522 -0.95028967 4.46038 -1.1056422 5.241488 -0.72659856 -2.22581 -0.8677453 -3.663472 -3.9347265 -1.9941056 -0.73226655 0.3648603 0.00094224326 3.1855843 2.4027915 -0.49000317 3.1242228 -2.4809055 -0.02151002 0.6547649 -0.21451019 1.1105709 -1.4708245 0.83364683 -0.65495324 0.8280549 1.864584 -1.8514843
ask -3.0276847 1.0732169 -0.7032854 -3.9069166 -1.2040341 -1.9018875 2.3503358 2.7312305 3.5140748 -0.024899531 -0.17718023 0.76528376 3.4866116 4.2729263 2.515771 -7.7520328 -1.5527939 0.52983606 4.0091257 -1.4447087 -0.22190271 -1.5576096 1.0303874 0.7324558 4.1179447 1.1096535 -1.7161353 1.5078067 -0.0072503453 4.687821 -0.4090034 -9.914847 -2.2369702 0.23546855 0.29562044 -1.1197145 -1.0297815 -0.20695351 3.2022343 2.0734055
prepare -3.029259 2.3487523 -0.65499574 -4.6789093 1.8445269 -6.388867 0.4400881 3.7208877 2.221394 -3.2124 -5.6648064 -1.2913007 1.8221989 1.3909986 -0.47567478 -0.70143867 -2.4957454 2.4402316 0.841049 3.8518302 0.19681188 0.8695109 -0.7910172 -1.599948 -0.012442537 -0.07044052 -0.01976682 1.9931893 2.9056118 1.4571006 -2.4022863 -5.877828 -1.8550241 -0.30811143 2.4234047 -0.7341393 -0.61894906 -7.773521 10.815974 -0.29597235
going -0.9804328 -7.3514857 -1.6956326 -1.131074 1.6823863 0.90050936 -3.2560935 3.1487935 -2.4364798 -3.3179522 1.3848568 -0.58589613 1.5955542 2.948208 -1.9065605 0.51821214 -0.76335704 0.3119067 2.0767648 2.0425358 1.8772309 -1.0386817 -3.4833562 2.650874 1.8485129 -1.1339124 1.9022028 -1.7196006 0.37715206 -0.25501376 -2.1314983 -2.8469048 4.4380155 2.632857 1.4527522 -0.5248663 1.0061291 -1.196281 -2.560237 -3.4967518
instagram 0.73081595 1.4505081 -0.36127105 1.8315299 4.131154 -2.1478558 1.2730178 4.7237997 5.4486456 -1.9133075 5.0611753 1.2847883 -2.1934671 4.579002 -6.886361 2.4724987 -1.7958113 -6.688772 2.1800933 -4.575044 2.2158027 2.8904798 2.563416 0.83969754 9.758037 0.43308347 -6.1220655 -5.3061895 4.030855 -1.6234909 -0.16896613 -8.952017 3.2456002 0.29763573 -3.030235 -1.9442511 -2.6407995 5.5117216 -2.4051566 1.2348222
clinton -2.848288 -5.5527987 0.58191794 -2.9627802 1.9090927 1.0173141 -2.0446599 -0.163503 0.14832783 -1.6351413 2.9587414 1.5872252 0.051057383 2.44918 -2.1854892 -1.4344487 0.33985895 -3.3254535 -1.268895 -0.56420267 1.338324 -2.7100363 -2.3713942 0.38350737 2.7578006 5.465434 2.8810005 0.98691237 4.741973 1.5985237 2.003632 -4.6702332 -4.691935 -1.1493863 -4.488533 -2.8582675 -1.961537 -0.7940319 -2.090704 -1.398341
before 1.066308 1.8818632 1.6247199 -0.44058564 0.6012426 1.0630382 -2.1920912 2.6317704 1.428737 2.6101758 0.2991607 -3.0516741 -0.29052413 -2.7095509 0.1914603 -0.38340583 0.6819803 -0.7643972 -2.0868332 1.1291327 2.168838 -1.7361952 -2.1315649 1.7820656 -1.468713 3.9217412 -1.577472 -1.393315 -2.0388691 -0.94969773 0.4189499 -2.9095082 0.57841194 -0.7585752 -3.960777 0.96193004 -0.0017730928 -3.4388738 -2.099976 -2.785257
change -2.9261274 3.7713387 3.181001 -2.9793038 -0.7223241 -0.78860164 2.572958 0.8097192 1.322212 -0.59853435 2.2879212 -3.357263 0.33633617 0.200254 -0.85317016 -1.0843576 -0.018413374 3.736047 -2.325002 0.4391639 1.0989978 1.1326237 3.7467709 -0.028011186 1.674872 -0.16031127 2.0241654 0.46238664 2.8129702 1.2655913 -1.1424288 -3.0380309 -3.4522688 0.10342983 0.9631195 3.039255 0.56514746 -1.490011 4.4376206 -0.20894906
no 0.5791006 0.93517405 2.1109314 -0.32867455 -3.7037513 0.2787616 -3.353479 3.651892 2.0466716 -1.2057685 2.6558259 1.7139449 -0.44496435 1.3003032 -1.1044964 1.7663366 3.4071188 -1.4662977 -0.22799256 -4.1784277 3.4789698 2.2329817 1.0502373 -1.2162366 2.7351356 -0.32051533 -0.35683885 0.31495774 -0.53141606 2.0624075 2.7738569 1.0053059 -0.57791346 -1.9229851 -0.100411005 1.9978136 1.2706296 -0.18021743 -3.1935859 0.43239492
real -0.9639285 0.6670345 2.760309 0.32148686 0.08101146 0.2124923 -0.09097371 -1.0806695 -0.51824266 -1.7429409 1.7756408 -1.1223626 1.4459753 1.3855734 5.366556 0.38944787 -0.049145937 3.8972552 -2.4644256 -2.6362333 3.2040887 -0.47471792 2.9000165 1.411376 3.0758464 -0.3590502 -1.7277169 1.8218333 -1.7595543 0.8942467 -1.2373511 2.2248807 0.32774478 0.4868786 0.06898532 -0.0763009 -2.0095448 -0.88719416 0.5606636 -2.3246725
win -10.004595 6.148439 -0.77889186 -4.1350565 3.707665 -1.7962114 -1.1762131 0.4511839 -2.3210056 -0.66501653 -1.6533903 -1.0153998 0.41777492 -1.7428285 -1.0818875 -0.21850449 -5.720074 2.6509182 -1.6057552 -0.6570725 0.53896075 1.292913 2.148296 -0.07501082 -0.5076595 3.6671689 5.544262 1.3411363 5.478752 -4.5690346 2.2214422 -5.239718 -3.3456945 0.54233235 -2.19036 0.00012851828 -6.960374 3.2365117 1.2093152 -2.6264424
increase -0.4564807 4.6997027 -1.0993972 0.42005906 0.99149966 -1.199352 6.564448 2.0699027 0.7705522 -2.4721673 -2.8906915 -5.787821 -0.81583697 4.464492 -1.3063936 1.5503881 -0.92351055 2.8288188 0.54685885 0.73014826 -1.8604026 3.4243357 1.0402663 0.54507893 3.8813298 2.134609 6.126432 -0.7267774 3.7017682 0.7154733 -3.8275795 -1.3649135 -2.5137548 -2.3482049 4.385243 0.31233433 -0.17776032 -0.898032 5.0249577 0.6066724
examples 0.5920135 -0.19100665 0.05463243 0.16487446 1.7581643 1.199855 0.020682268 -5.7915287 0.80877155 -1.7995685 -4.2029023 -0.21086343 -0.19258879 0.9930261 3.6112294 -5.197142 2.036136 0.11021052 -0.74709654 -3.688868 -4.4765754 -1.1045026 0.41589913 2.9382532 2.4953506 -1.4996934 -1.7073307 1.2221096 2.3375707 -1.2627511 -2.9842918 1.3461988 0.9430122 -0.12985016 1.5920238 -4.85981 0.7852988 0.03542797 -1.6051435 -2.2153132
learning -5.1712995 -2.9604447 1.1672409 -3.0826154 0.5119093 -3.6829083 -0.42193097 0.24473707 4.1211085 -5.172984 -0.046623837 2.0454075 -0.98599404 0.7620186 3.0888772 3.3012543 0.20045769 0.3365548 -0.33838788 4.793089 -1.0838658 -0.6044379 0.020108446 -2.3927293 1.752822 -1.5368742 -4.373693 -1.6883721 -0.5309785 -1.6430107 -2.1708 -4.045499 2.1651185 1.0825402 4.1270003 -3.8077152 3.4929552 -0.69037426 4.1380434 0.52643865
only -0.164396 0.93850845 2.60918 -1.5836889 -0.97644573 1.244485 -1.7468983 2.7487104 2.0285547 1.5773721 2.1548176 -0.60185385 -0.16766879 1.0574049 1.4844443 -0.46546373 1.0232127 -1.049785 0.4619922 -1.216676 1.9016598 1.5984398 0.6459389 -1.8747543 1.233959 0.63143885 0.16248213 1.4286236 0.110125005 1.3451483 0.79182357 -0.15333575 1.4710326 -1.3738171 0.17561512 0.86678517 0.051266048 0.48584455 -1.203986 -2.9006548
website 1.7415513 4.0205784 -1.6777561 -3.0776331 6.4986234 -1.5770744 1.8580581 -0.6110772 1.1540896 -5.6566677 2.1276548 3.1419659 0.73633844 1.8473233 1.0039005 4.265821 0.5772924 -1.9391763 0.7372813 0.7654298 1.5257486 2.7931304 0.19765578 2.8357477 2.2008889 -1.6978054 -2.794418 -2.6536283 1.0882558 -0.36847964 0.85282713 -1.2740124 2.617943 1.3397068 0.7029116 -0.22628531 -1.734476 0.8427472 1.9150563 1.2273855
company 1.8315148 1.5415553 1.6509565 -1.9441795 5.572557 -0.45765617 0.016422423 -1.330576 -0.20992342 -6.7536054 1.1889799 0.35809124 2.915042 -0.43073443 -0.07521428 1.3773257 1.1126163 -2.8221169 1.3232625 -0.17397082 4.6069717 -0.6129191 -0.6686986 1.5051516 -1.9904791 0.70516837 -3.0469148 -2.2871742 2.2147195 -0.4059497 1.3440574 -5.026696 0.49446917 0.10436903 1.9319469 2.787816 0.59347814 0.53021985 -0.6469471 -0.76050675
over -0.6614696 -0.02113011 -0.11935633 1.3858634 0.42496857 1.0937228 1.4060304 2.336913 0.54619807 1.2749227 1.0798253 -1.3730351 0.08052346 -2.4414911 0.6480692 1.0118476 0.9070925 0.2977747 -1.6438826 -1.2243652 -0.31185085 2.0687294 -3.0874715 -0.89714557 1.3122346 2.003648 0.2995645 0.7178458 -0.2688998 -0.91184586 -0.210392 -1.7958213 0.81081325 0.30783975 -1.2181875 2.0869124 2.2392087 -0.09031297 -1.0356003 -2.259068
women 2.5874734 -0.26937756 -2.577009 -2.8039496 -2.112808 0.19934058 0.2800967 0.441548 -3.7075732 -1.8888137 2.7011318 3.5219667 -1.6434532 1.22052 -1.204666 -2.5105674 -1.674273 -3.2561026 -1.4242657 0.7063932 0.47761706 0.76573014 0.47965318 -2.7468708 3.5809135 -0.19197564 0.7704369 -0.031524573 -0.041525308 -0.04399645 1.1032919 -2.8401213 -4.14922 3.8731656 3.044852 -0.21817149 -0.15315354 3.079234 -1.4756458 -7.069551
college 0.2346221 0.44984406 -0.5530912 -1.6903504 0.4014535 -1.7011268 -0.26090616 -0.46832496 0.5392497 -5.1772795 -2.849097 1.3539279 1.5354723 0.44773677 -3.9786117 2.2548378 2.4118707 -1.552066 0.5246834 1.3771677 3.4407094 1.3138264 -1.7059543 -0.5000028 0.76260424 2.982963 -2.5405219 1.8522825 1.5018207 -2.23244 -1.0187677 -6.866175 0.9365655 3.9351866 2.1594286 1.0123614 -1.0829268 -0.1936995 -0.12025189 -1.155768
app 1.4423532 3.1594093 -1.3660511 -3.1942132 4.811646 -2.3171368 2.139374 -0.1330737 1.2945595 -3.2660267 3.726531 3.2046804 -2.211087 1.7214288 1.4030354 3.200762 -2.0515335 -4.8289084 0.38062236 -0.34787175 2.929643 0.18497975 -1.6417075 3.373429 0.038082168 -1.7130711 -2.6000044 -2.9413018 2.2113743 -0.33838934 2.9307992 -0.26876435 0.5081946 -0.15219621 0.32777634 -0.1785065 2.3935552 0.22461356 1.3563167 0.40371826
important -1.8806655 -0.27573746 -4.348527 -0.54381937 2.540145 -0.9977804 -2.1373043 -4.098392 0.66379255 -1.8835998 -0.13529252 -3.650944 1.1409678 0.9835779 -0.20193577 -4.112666 -3.1124063 3.074698 0.66162205 -3.0407228 0.09446214 -3.830911 -1.8555528 -2.1274645 1.364469 -1.5810522 -1.1975371 4.398707 1.0461817 0.08030542 2.765041 1.4021242 -0.5144435 2.5363479 2.8086042 -0.14742655 0.32108235 -4.6324177 -3.111019 1.1549314
iphone -0.4400923 0.95459795 2.012327 -2.446885 6.7175303 -2.4069088 3.097725 1.0662926 -0.6753043 0.24127696 6.261566 -0.08854603 -2.071146 4.076692 -4.1147733 -0.91679186 -1.6616735 -5.672546 1.0109253 1.2275193 3.6714735 -1.1474805 -2.2958663 1.0298872 -0.31195217 1.5979488 -3.5008342 -2.8390372 2.8637738 -5.950555 1.4882236 -5.074535 2.2112052 0.7546028 0.43554956 -0.09100842 2.2463248 1.997602 4.5861697 -0.31378654
our -0.9109298 -2.6026685 2.5352302 3.4942586 -3.6268294 2.2624297 -2.479913 -1.1368262 -0.23514505 -1.8962747 4.393158 0.07681811 0.5324991 1.2232709 2.6214964 -0.3834899 -1.0078797 0.8302814 -1.8329942 1.4687495 -0.4416907 2.0552485 0.371531 1.0577714 5.9843726 0.304643 0.71012735 0.3194439 0.5770589 -0.20314261 1.7873766 -1.8256633 -1.3157036 -1.1036334 1.0182151 -0.29218078 1.35486 -2.6773741 -0.77479535 -1.3506032
system 2.5737724 2.6568103 -0.63512015 -2.4814327 3.3586555 -0.5725277 -0.6117801 -2.7334454 -1.703643 -1.0225242 3.3267481 0.064121015 -0.79130214 -1.3460157 -0.8553017 -0.7375239 3.658573 -0.033833936 -2.690206 -0.4151027 0.5455755 1.5258503 -0.42282814 1.6682811 -0.8727867 -1.0164003 0.8255061 2.9766576 2.1661134 -0.6309434 -1.1322757 -1.2624602 2.3194609 0.5897033 0.8064029 2.2969983 2.7052703 -1.0618169 5.231573 0.7040308
android -0.15556094 0.6391358 1.3129175 -2.8317866 3.5765197 -2.9157143 1.120304 -0.074998245 0.49383822 -0.87738055 4.6856813 1.21675 -2.2027078 2.9342384 1.0057023 2.9128208 -3.0902739 -3.5843985 -0.691034 -0.4575183 0.8380379 0.13228957 -2.31215 0.78461415 2.0742428 0.08100259 -4.744805 -1.2626269 3.5574756 -2.300578 0.8747537 -1.5864673 0.5702439 -1.0808989 2.2485418 -1.0830845 4.257609 -0.56993276 4.629182 -0.71108353
computer 1.3957173 -0.43404847 0.6711024 -4.1961265 1.5093837 -2.697619 1.2335637 -1.3083631 1.6553038 -0.21591033 0.5717114 0.18770815 -2.4522111 1.2663628 -0.6218278 0.37765875 3.4721818 -1.2085329 -0.3072368 1.9628366 2.137398 1.2529111 -0.014331074 0.80430347 0.3811923 -1.6251172 -4.2545037 -0.55299693 1.8877534 -3.6041248 -0.45959732 -3.3365576 2.2215822 1.2869649 3.0033484 0.7986649 1.8861642 -0.29539096 2.3809197 0.928981
live -1.0235933 1.6498284 2.8118587 -1.2881627 -0.03861341 -1.9529713 -0.46168196 2.9554248 -1.5887783 -5.8759923 -0.8635145 1.5936096 -1.1867856 1.6576108 0.16564284 -3.5422566 -3.3552055 1.2298189 -1.8144234 -0.79895705 2.2148683 1.8653536 0.6343021 0.14683966 1.1221595 -1.3769754 1.213291 1.0278821 -1.8308556 1.8983011 0.58477914 -5.3881297 0.5488132 -0.541964 1.7296879 1.6332092 -0.15020841 2.3593047 2.3929656 1.7807409
back -3.8843534 3.0983372 2.3170156 0.39639574 -0.2987749 1.4961894 0.24577183 4.5040116 0.19969551 0.8583878 3.5423365 -1.1349782 -0.07090178 -1.5065646 -0.90264475 1.4908139 2.825396 -0.15722795 -1.7173383 -0.7954371 3.959623 2.699098 -1.2245603 0.99922234 1.989301 2.7754843 -0.78355753 -2.0696783 -0.29174376 -1.2855358 -0.5980105 -2.732662 1.3916507 1.6388154 -2.1782658 2.820425 1.2268553 -1.826325 -1.7138417 -2.589166
earn 2.1700132 6.967412 0.7442196 2.3498497 1.588559 -2.21863 1.4185592 3.6060975 2.249848 -5.855731 -7.5012107 -4.4048805 -1.3733271 3.4030004 2.213196 -0.27146095 -7.277087 -0.86453956 4.482503 1.5788522 1.4017227 0.89037305 0.7531791 1.932004 4.675992 1.5711432 3.0322669 -1.1603328 -0.0985992 0.7344539 0.5002566 -3.1600244 0.23195614 -2.6424503 4.229576 2.2391431 -0.28174958 3.342329 4.4270597 4.2165523
country 2.350152 0.92022413 -0.88667613 -3.5816703 4.6799817 -0.637 -2.7838495 -1.8123454 -1.6524063 -6.1558523 4.205544 1.3109446 0.79173994 -1.7147487 -1.3867351 -0.8286104 -2.4657357 -2.1546917 -1.5517479 0.3735706 3.1253731 1.6713681 -0.30459228 1.8140572 -0.6520664 1.635733 2.8325593 1.2726068 0.1047194 -1.5850898 -0.42166975 -3.1878362 2.5211835 2.4755282 0.89824003 0.9815623 1.7788152 4.073268 -1.5288546 -1.4187192
study -1.2070682 -0.5862564 -1.3732722 -4.3492312 -0.62039495 -3.1827338 -3.0553517 1.8263843 2.3008275 -4.636812 -5.0009537 -0.23821601 0.21159072 1.0158144 -1.1234761 1.088596 0.827046 1.5471203 0.99275434 4.14689 -0.48126125 2.6266456 1.264071 -2.2691712 1.6414346 0.88812864 0.703536 0.54316664 -0.10890456 -0.9974682 0.08383257 -5.05791 0.9801192 2.1271102 3.2960658 0.40325367 0.5324885 -3.1392028 2.830486 1.2135509
bad -1.1586794 -1.6609992 0.94447446 -2.7248003 0.2970732 0.54276305 0.22794469 0.5402047 0.16172422 -1.6412352 -0.10035727 -1.5161065 -0.0384829 2.4554918 0.13154273 -1.3535991 2.7240644 1.1611135 -0.5221206 -0.4408039 2.8121436 -3.0291102 -1.7011759 -2.0219493 2.8632226 0.67413974 -1.4724183 2.1153564 -4.099505 -0.42413557 1.0131854 -0.5373026 -1.863242 1.4526224 -1.2966096 0.95587397 0.096033886 -0.40451488 -0.35110176 -0.15974821
top -0.40943357 2.2884262 -0.47575375 -0.14620468 3.8213298 -0.3969776 -1.8816077 1.5663002 0.50299776 2.2452974 -2.7212834 -0.5010819 -1.3198507 -0.30538583 0.07837407 0.18673128 -1.8261968 -0.60189795 3.020972 0.34567073 -1.198081 -2.7111137 -0.71148574 0.031983927 -0.602839 -2.0349503 -3.2956822 1.7672455 2.410792 -0.8919492 -2.9269989 -0.49909246 0.8454059 1.6617692 4.0426745 1.6372434 -2.5156353 2.0905116 -0.31478027 -4.430876
while 2.0571666 4.7329836 -1.3863971 0.3523619 -0.35551113 3.2023425 -0.31488508 1.0211871 1.6809024 3.552964 -0.4688339 -1.3680984 0.38779777 -0.6984872 -0.782645 -0.76100206 -0.39309147 -1.7594793 -0.8992023 0.697592 1.5950018 -0.9121145 -3.6478102 1.5334188 0.653036 2.8554323 -1.1097811 -1.4278035 -1.434181 -1.4822098 0.7533405 -1.3316225 -0.40995598 -0.5729515 0.37480634 -0.107103534 3.162759 -2.7253559 -1.9473006 -0.7966881
made 0.11230965 -0.24539079 1.1962235 1.7037948 1.8808603 -0.47487506 -1.6251718 0.3703649 -0.8300781 0.8236198 -0.1951117 -1.3034061 0.20869784 2.2818882 2.2312813 -1.2034442 -0.29665318 0.12945549 0.022171991 -0.5540306 -0.17866366 -2.5348368 1.4963052 2.7387807 0.6944793 -2.437467 0.7379124 2.271901 -2.6387994 -1.7993653 -1.0009325 -1.3518566 0.45595148 0.67810667 -0.028904045 2.1564536 1.2006097 0.34304196 -1.7967597 1.7202151
data 1.0203274 0.42677218 1.2020459 -0.10744171 2.1571233 -3.0039375 0.32145405 -1.773672 3.0521667 -3.430114 1.5206964 1.4483742 -3.012974 -0.16116051 2.5658565 2.4148908 2.4913044 -2.5754068 0.089429475 1.8303385 2.3460627 0.07805518 4.277503 1.4506934 0.45064518 -0.6112808 -4.1923656 -1.6937015 0.80746174 -3.024645 1.9354779 -0.6093928 2.4354324 -0.95948887 3.3608634 0.95445836 1.1161127 -0.5885437 4.2037544 0.02524675
read -0.79213566 -0.5030689 1.2197803 -3.3692431 1.8230077 -5.7494626 -0.90767545 2.9377024 5.755665 -1.4850178 -0.37582743 0.05533027 1.0547597 3.1579442 0.22571032 1.2443427 -2.4387124 -0.43412012 0.38576755 1.7635182 -3.6720898 -0.66886276 2.773521 0.59074146 3.0554047 -1.2440432 0.633255 0.84500706 -1.8982719 -1.3550922 1.3480785 -3.1078908 1.3391006 0.114276804 0.42681366 1.4965985 0.5826224 -2.2284272 -0.4685434 0.051457044
she -0.4202701 0.14316626 2.8860114 -4.5953674 -3.523284 -0.47188285 -0.5586536 0.7581676 0.58257425 -2.6244676 5.1003113 -1.5024604 3.6945667 5.1825647 -1.999467 0.086237036 -0.5353366 -3.5741193 -0.72430855 -0.912941 4.880955 3.7323892 -1.406779 -0.56016415 2.7867563 4.5281305 2.6607144 -2.6269221 -1.5701501 0.05312783 1.5272083 -5.954603 -1.8088037 2.389797 -1.843866 -0.3816189 -1.2739646 -1.1510988 -5.9337335 -1.7069303
energy 0.10241034 1.1171254 -2.44269 -0.7703498 1.8679059 0.9402795 -3.0295987 -0.4692403 -1.2454206 -6.258008 3.6304517 -2.7373848 -1.813322 4.511731 2.456532 0.11665637 7.2130413 0.18735306 -0.059839673 -1.4059275 3.4058993 -0.94328636 4.8503346 1.418716 4.045539 2.093963 -0.13703737 0.040737163 3.34304 -4.7377796 -0.0063311714 -3.7298074 6.617521 -1.0206803 3.6323125 -0.73646915 1.1354715 1.8572158 -2.9328594 -0.6661135
school -0.36934552 0.9649673 1.1738101 -0.7449661 -0.48566496 -1.9113525 -0.44493204 -1.3011544 -0.3365135 -4.1282487 -4.145045 1.7038312 0.23923233 -0.39618924 -4.2306023 2.1067996 4.170649 -1.1086302 1.6940064 3.1181982 3.3063245 0.37543395 -2.808609 -0.6616278 1.654115 -1.0831273 -1.0451616 -0.09058834 -0.8098812 -4.718635 -2.4047177 -6.1863723 2.4795027 3.7201586 1.6294898 2.3743997 -1.558572 0.7074492 -1.9264259 -1.0005436
c -0.43721566 -0.15715067 1.1157591 -3.8018448 0.07132314 -2.453119 -3.1458528 0.04514462 1.9614094 -2.339986 0.39282924 -0.13149315 -1.0491647 1.6168383 1.712223 1.8711519 1.2310561 -1.2954537 1.4782823 0.73798823 1.3408079 1.3885267 1.5430055 -2.7074444 -0.4423925 -2.1665752 -2.5209076 -1.6994681 2.3678012 -2.117472 -0.027813964 -1.7585992 3.3406026 -1.1734537 0.9019976 -3.0405512 2.496136 -2.82203 1.5770537 -0.71063566
rupee -2.0238304 1.5936128 0.5281513 0.77336705 1.6719052 -1.5754515 -2.7927883 -0.3539817 -1.8989182 -3.1784666 2.6948035 -4.0147486 -0.83755493 1.4975016 -0.6117847 3.9109817 2.5815537 -2.7288425 -0.07851297 -2.1126976 -1.6400083 -3.3686223 0.9889214 1.2292693 -0.16204524 2.2337065 5.4428053 -2.0326722 0.35467717 -2.394065 1.2093792 3.5255368 3.8198814 4.69807 -3.5012226 1.2851509 0.3380448 0.60488904 2.7554905 -1.6165974
government 1.9179914 0.3247285 -1.6829479 -0.36391085 1.4644097 1.1078184 -4.9626365 -0.87823397 -0.7403654 -2.9989145 1.945811 -1.6035125 2.1510131 1.7192456 -2.2674837 2.9258108 1.6629158 -3.5178328 -1.8387593 1.6002944 -0.9646959 -2.8183424 3.612647 3.6356082 -1.0663278 0.60246277 5.840443 2.0948455 1.5143087 -0.56114274 0.587268 -0.92153805 -0.14654477 4.505381 0.2833862 2.5549746 1.2812873 -0.33586895 2.7171454 -2.3047314
10 0.06558677 -0.17370296 -0.24787676 0.057517525 -1.5102923 -0.96140444 -0.6372258 4.920821 -0.84981227 -1.8786533 0.013037405 -1.9419686 -2.7373824 2.2652295 -0.42292228 2.6507268 -0.7510437 -1.8843507 -1.001671 -1.4091417 0.8016905 1.4533358 -1.9169167 -1.7793391 -0.8562943 -1.5308763 -1.5283355 2.7658105 1.3765088 -0.8886713 -0.93100774 -2.9170802 1.2064229 0.17867506 -1.5715798 -0.6654483 -0.8210456 -0.33298507 1.1735266 -1.1751208
through -0.059689067 2.2251413 -2.338145 2.4601667 1.287199 2.4640453 1.3495892 1.576903 1.8540256 2.1576786 0.68464345 -1.009076 -0.044745922 -2.314674 2.1527925 0.9055876 -0.3477689 0.77536255 1.0186615 1.4017386 2.1057274 0.6687268 -0.33863875 1.7436978 -0.6339125 2.7609754 -1.4206055 -0.55624276 -0.23874268 -2.9531164 1.0221019 -0.60033876 -1.8229772 -1.426009 0.9352206 0.6430215 0.27367726 -2.4109082 -0.34200543 -0.757957
science -0.02668516 -1.240203 0.36340302 -1.4845127 -1.8798038 -3.4433682 -2.6760304 -0.42662108 3.3662858 -1.1982182 -4.2948627 0.21911225 -3.0078406 0.90979093 -1.8355641 -0.11117282 4.251297 -0.7258986 -2.7973688 2.369075 2.46997 0.5245024 0.763833 -2.540622 1.237875 -0.30079082 -2.4336147 1.1514866 4.3119254 -2.514489 0.49083227 -1.7604508 -0.3982841 1.8921629 2.7204862 -1.9450231 -0.18380904 -2.148786 -1.6062859 2.1373396
same -1.3513043 2.174403 1.0628306 -0.4237753 0.400264 2.9443505 -2.3001695 2.252418 2.130613 2.7859802 3.2571552 -2.5583484 0.818854 1.3812016 -1.217853 -0.09089058 0.6843913 -0.72806215 0.73057294 0.061816007 2.8380227 1.8337759 2.7443798 -2.300937 2.9488 -1.6099297 0.24229899 1.0799094 -0.0142620625 1.6338404 -1.9483837 -0.24717768 1.21135 -2.569395 3.33451 -0.69900143 1.3025334 0.22358717 -2.79435 -4.734705
cant -0.897904 -2.3873508 -0.26482016 -1.2677186 2.1878865 3.5355904 -0.71563894 -0.64759403 -1.1911706 2.413738 4.165223 2.8573408 -0.74309087 -1.3168384 -1.5765163 2.185131 1.8607022 -0.041004106 4.0329604 -1.272734 -0.16855903 0.14892048 1.2845061 -0.0829994 4.114059 2.646065 -3.279595 1.420255 -2.4603894 1.3413467 4.922585 -1.5527457 3.2685664 0.15200256 -2.391619 1.736987 3.7190008 -1.1445826 -1.9192785 -1.4864035
two -2.049722 -0.90551347 1.2490515 0.33024094 -0.9829269 0.90722924 0.09764631 6.1773663 1.7130159 -2.811392 3.300453 2.0811477 0.70532435 0.446343 -0.21116658 0.109628916 0.62199074 -1.404973 -2.2487957 -3.0646453 1.6402212 1.7961055 1.5868893 -3.7505987 0.433057 -1.151771 -0.13875458 3.498039 1.7663388 0.0886988 -2.1779323 -3.983876 1.3814354 -2.5522785 -0.013537469 -1.8451695 1.8044468 -0.5876107 -1.5900292 -3.392694
2017 -1.7832544 -1.1384083 1.9129378 -1.6547292 1.6564212 -1.7745395 -2.5110042 2.7504265 0.2447058 -3.0282485 -0.8327797 -3.325839 2.3867705 3.3355486 -1.4220303 2.9416485 1.1716487 0.08490626 0.39828932 -0.17801602 2.426417 1.6519898 -3.2389314 1.0083904 -0.36618313 1.452301 -4.2492948 1.1913526 2.1643994 -1.8254373 -2.348966 -2.634994 0.7041193 5.316438 -1.793219 -0.52084893 -3.6065726 -4.8007417 4.1831675 -1.1952224
earth -1.6702087 1.349113 0.032510176 2.8327143 -0.60935926 -0.39609772 -3.463155 -1.06748 -2.3660932 -1.3637334 9.267964 -1.6420004 -6.2844863 3.9428623 -0.9976315 -6.6481223 -2.0803773 -1.7238808 -3.6146176 0.10062523 1.9532689 3.911744 4.045043 2.4023414 4.281865 0.20547546 -0.46107084 3.14918 0.82692516 -0.004112108 -0.16742653 -5.509651 2.931906 -0.4635109 1.5397818 -4.058318 -1.1312786 1.3536178 -1.3393668 -0.8946932
software 3.9374151 0.9947901 0.60332835 -2.142581 1.9453384 -1.8773729 0.04309781 -2.3873541 0.868758 -2.9533172 -0.71401024 1.2517481 -1.647363 1.8036541 1.7081529 2.6552773 0.5940619 -3.5467522 0.24798764 0.7185513 2.339297 -0.42168203 -0.8423285 0.5663799 -1.5041013 -2.3134952 -4.971799 -1.0672252 0.8751526 1.5806082 0.41784835 -3.7553222 1.0163064 -1.1088097 2.4655023 -0.63656676 1.2276676 -0.93070525 3.319609 0.79967916
water 0.90920985 2.035634 -1.8000205 -1.2916871 1.5169343 1.7876631 -4.940306 1.2533058 -5.187589 -3.4368894 3.4259145 -1.530142 -2.5292068 2.851406 0.89528316 -4.1720777 5.563023 0.32922962 -1.1227355 1.6030412 0.0009300292 2.0407722 2.1529262 0.80497164 0.5022211 2.2559187 2.2866862 -1.2992091 -2.1257331 -2.4252276 0.33310202 -1.5517458 1.5043852 -1.0010653 0.6346642 -1.6941205 0.4571348 0.414909 2.1091757 -0.52276385
